digraph Tree {
0 [label="X[0] <= 0.5000\nentropy = 0.790501384215\nsamples = 767", shape="box"] ;
1 [label="X[2] <= 4.5000\nentropy = 0.984795333457\nsamples = 138", shape="box"] ;
0 -> 1 ;
2 [label="X[2] <= 3.5000\nentropy = 0.996791631982\nsamples = 120", shape="box"] ;
1 -> 2 ;
3 [label="X[6] <= 1.5000\nentropy = 0.981714083795\nsamples = 107", shape="box"] ;
2 -> 3 ;
4 [label="X[3] <= 1.5000\nentropy = 0.869137580613\nsamples = 31", shape="box"] ;
3 -> 4 ;
5 [label="X[5] <= 2.5000\nentropy = 0.979868756651\nsamples = 12", shape="box"] ;
4 -> 5 ;
6 [label="entropy = 0.9710\nsamples = 5\nvalue = [ 3.  2.]", shape="box"] ;
5 -> 6 ;
7 [label="entropy = 0.8631\nsamples = 7\nvalue = [ 2.  5.]", shape="box"] ;
5 -> 7 ;
8 [label="X[4] <= 0.5000\nentropy = 0.742487569542\nsamples = 19", shape="box"] ;
4 -> 8 ;
9 [label="entropy = 0.5033\nsamples = 9\nvalue = [ 1.  8.]", shape="box"] ;
8 -> 9 ;
10 [label="entropy = 0.8813\nsamples = 10\nvalue = [ 3.  7.]", shape="box"] ;
8 -> 10 ;
11 [label="X[3] <= 1.5000\nentropy = 0.998000883872\nsamples = 76", shape="box"] ;
3 -> 11 ;
12 [label="X[5] <= 3.5000\nentropy = 0.965636133371\nsamples = 46", shape="box"] ;
11 -> 12 ;
13 [label="entropy = 0.9268\nsamples = 38\nvalue = [ 13.  25.]", shape="box"] ;
12 -> 13 ;
14 [label="entropy = 0.9544\nsamples = 8\nvalue = [ 5.  3.]", shape="box"] ;
12 -> 14 ;
15 [label="X[1] <= 1.5000\nentropy = 0.970950594455\nsamples = 30", shape="box"] ;
11 -> 15 ;
16 [label="entropy = 0.0000\nsamples = 7\nvalue = [ 7.  0.]", shape="box"] ;
15 -> 16 ;
17 [label="entropy = 0.9986\nsamples = 23\nvalue = [ 11.  12.]", shape="box"] ;
15 -> 17 ;
18 [label="X[7] <= 1.5000\nentropy = 0.619382194679\nsamples = 13", shape="box"] ;
2 -> 18 ;
19 [label="entropy = 0.0000\nsamples = 6\nvalue = [ 6.  0.]", shape="box"] ;
18 -> 19 ;
20 [label="entropy = 0.8631\nsamples = 7\nvalue = [ 5.  2.]", shape="box"] ;
18 -> 20 ;
21 [label="X[7] <= 1.5000\nentropy = 0.650022421648\nsamples = 18", shape="box"] ;
1 -> 21 ;
22 [label="entropy = 0.0000\nsamples = 11\nvalue = [  0.  11.]", shape="box"] ;
21 -> 22 ;
23 [label="entropy = 0.9852\nsamples = 7\nvalue = [ 3.  4.]", shape="box"] ;
21 -> 23 ;
24 [label="X[0] <= 3.5000\nentropy = 0.712935232393\nsamples = 629", shape="box"] ;
0 -> 24 ;
25 [label="X[2] <= 1.5000\nentropy = 0.773226674288\nsamples = 484", shape="box"] ;
24 -> 25 ;
26 [label="X[6] <= 2.5000\nentropy = 0.923119983542\nsamples = 68", shape="box"] ;
25 -> 26 ;
27 [label="X[7] <= 1.5000\nentropy = 0.769192829013\nsamples = 40", shape="box"] ;
26 -> 27 ;
28 [label="X[5] <= 3.5000\nentropy = 0.5435644432\nsamples = 24", shape="box"] ;
27 -> 28 ;
29 [label="entropy = 0.3095\nsamples = 18\nvalue = [  1.  17.]", shape="box"] ;
28 -> 29 ;
30 [label="entropy = 0.9183\nsamples = 6\nvalue = [ 2.  4.]", shape="box"] ;
28 -> 30 ;
31 [label="X[3] <= 2.5000\nentropy = 0.954434002925\nsamples = 16", shape="box"] ;
27 -> 31 ;
32 [label="entropy = 0.0000\nsamples = 6\nvalue = [ 0.  6.]", shape="box"] ;
31 -> 32 ;
33 [label="entropy = 0.9710\nsamples = 10\nvalue = [ 6.  4.]", shape="box"] ;
31 -> 33 ;
34 [label="X[0] <= 2.5000\nentropy = 1.0\nsamples = 28", shape="box"] ;
26 -> 34 ;
35 [label="X[0] <= 1.5000\nentropy = 0.981940786864\nsamples = 19", shape="box"] ;
34 -> 35 ;
36 [label="entropy = 0.9852\nsamples = 7\nvalue = [ 4.  3.]", shape="box"] ;
35 -> 36 ;
37 [label="entropy = 0.9183\nsamples = 12\nvalue = [ 4.  8.]", shape="box"] ;
35 -> 37 ;
38 [label="entropy = 0.9183\nsamples = 9\nvalue = [ 6.  3.]", shape="box"] ;
34 -> 38 ;
39 [label="X[7] <= 2.5000\nentropy = 0.739825329445\nsamples = 416", shape="box"] ;
25 -> 39 ;
40 [label="X[5] <= 4.5000\nentropy = 0.75950639478\nsamples = 387", shape="box"] ;
39 -> 40 ;
41 [label="X[1] <= 1.5000\nentropy = 0.772792633943\nsamples = 370", shape="box"] ;
40 -> 41 ;
42 [label="entropy = 0.4395\nsamples = 33\nvalue = [  3.  30.]", shape="box"] ;
41 -> 42 ;
43 [label="entropy = 0.7956\nsamples = 337\nvalue = [  81.  256.]", shape="box"] ;
41 -> 43 ;
44 [label="X[7] <= 1.5000\nentropy = 0.322756958897\nsamples = 17", shape="box"] ;
40 -> 44 ;
45 [label="entropy = 0.6500\nsamples = 6\nvalue = [ 1.  5.]", shape="box"] ;
44 -> 45 ;
46 [label="entropy = 0.0000\nsamples = 11\nvalue = [  0.  11.]", shape="box"] ;
44 -> 46 ;
47 [label="X[4] <= 0.5000\nentropy = 0.362051251734\nsamples = 29", shape="box"] ;
39 -> 47 ;
48 [label="entropy = 0.0000\nsamples = 15\nvalue = [  0.  15.]", shape="box"] ;
47 -> 48 ;
49 [label="X[0] <= 1.5000\nentropy = 0.591672778582\nsamples = 14", shape="box"] ;
47 -> 49 ;
50 [label="entropy = 0.7219\nsamples = 5\nvalue = [ 1.  4.]", shape="box"] ;
49 -> 50 ;
51 [label="entropy = 0.5033\nsamples = 9\nvalue = [ 1.  8.]", shape="box"] ;
49 -> 51 ;
52 [label="X[2] <= 3.5000\nentropy = 0.435317779041\nsamples = 145", shape="box"] ;
24 -> 52 ;
53 [label="X[2] <= 2.5000\nentropy = 0.297472248919\nsamples = 114", shape="box"] ;
52 -> 53 ;
54 [label="X[5] <= 2.5000\nentropy = 0.371232326641\nsamples = 84", shape="box"] ;
53 -> 54 ;
55 [label="entropy = 0.0000\nsamples = 22\nvalue = [  0.  22.]", shape="box"] ;
54 -> 55 ;
56 [label="X[3] <= 2.5000\nentropy = 0.458685816201\nsamples = 62", shape="box"] ;
54 -> 56 ;
57 [label="entropy = 0.7219\nsamples = 15\nvalue = [  3.  12.]", shape="box"] ;
56 -> 57 ;
58 [label="entropy = 0.3425\nsamples = 47\nvalue = [  3.  44.]", shape="box"] ;
56 -> 58 ;
59 [label="entropy = 0.0000\nsamples = 30\nvalue = [  0.  30.]", shape="box"] ;
53 -> 59 ;
60 [label="X[6] <= 1.5000\nentropy = 0.770629069364\nsamples = 31", shape="box"] ;
52 -> 60 ;
61 [label="entropy = 0.0000\nsamples = 7\nvalue = [ 0.  7.]", shape="box"] ;
60 -> 61 ;
62 [label="X[1] <= 4.5000\nentropy = 0.870864469235\nsamples = 24", shape="box"] ;
60 -> 62 ;
63 [label="X[1] <= 3.0000\nentropy = 0.949452015388\nsamples = 19", shape="box"] ;
62 -> 63 ;
64 [label="entropy = 0.5917\nsamples = 14\nvalue = [  2.  12.]", shape="box"] ;
63 -> 64 ;
65 [label="entropy = 0.0000\nsamples = 5\nvalue = [ 5.  0.]", shape="box"] ;
63 -> 65 ;
66 [label="entropy = 0.0000\nsamples = 5\nvalue = [ 0.  5.]", shape="box"] ;
62 -> 66 ;
}