digraph Tree {
0 [label="X[1] <= 3.5000\nentropy = 0.823939760921\nsamples = 767", shape="box"] ;
1 [label="X[5] <= 2.5000\nentropy = 0.780365285206\nsamples = 657", shape="box"] ;
0 -> 1 ;
2 [label="X[3] <= 2.5000\nentropy = 0.902104157876\nsamples = 173", shape="box"] ;
1 -> 2 ;
3 [label="X[6] <= 3.5000\nentropy = 0.840980533616\nsamples = 89", shape="box"] ;
2 -> 3 ;
4 [label="X[1] <= 1.5000\nentropy = 0.811278124459\nsamples = 80", shape="box"] ;
3 -> 4 ;
5 [label="X[0] <= 1.5000\nentropy = 0.970950594455\nsamples = 10", shape="box"] ;
4 -> 5 ;
6 [label="entropy = 0.7219\nsamples = 5\nvalue = [ 4.  1.]", shape="box"] ;
5 -> 6 ;
7 [label="entropy = 0.9710\nsamples = 5\nvalue = [ 2.  3.]", shape="box"] ;
5 -> 7 ;
8 [label="X[2] <= 3.5000\nentropy = 0.775512658133\nsamples = 70", shape="box"] ;
4 -> 8 ;
9 [label="entropy = 0.7219\nsamples = 60\nvalue = [ 48.  12.]", shape="box"] ;
8 -> 9 ;
10 [label="entropy = 0.9710\nsamples = 10\nvalue = [ 6.  4.]", shape="box"] ;
8 -> 10 ;
11 [label="entropy = 0.9911\nsamples = 9\nvalue = [ 5.  4.]", shape="box"] ;
3 -> 11 ;
12 [label="X[2] <= 1.5000\nentropy = 0.949938021423\nsamples = 84", shape="box"] ;
2 -> 12 ;
13 [label="X[6] <= 2.5000\nentropy = 0.995727452085\nsamples = 13", shape="box"] ;
12 -> 13 ;
14 [label="entropy = 0.8631\nsamples = 7\nvalue = [ 5.  2.]", shape="box"] ;
13 -> 14 ;
15 [label="entropy = 0.6500\nsamples = 6\nvalue = [ 1.  5.]", shape="box"] ;
13 -> 15 ;
16 [label="X[6] <= 3.5000\nentropy = 0.922919287869\nsamples = 71", shape="box"] ;
12 -> 16 ;
17 [label="X[1] <= 2.5000\nentropy = 0.945660304601\nsamples = 66", shape="box"] ;
16 -> 17 ;
18 [label="entropy = 0.9689\nsamples = 58\nvalue = [ 35.  23.]", shape="box"] ;
17 -> 18 ;
19 [label="entropy = 0.5436\nsamples = 8\nvalue = [ 7.  1.]", shape="box"] ;
17 -> 19 ;
20 [label="entropy = 0.0000\nsamples = 5\nvalue = [ 5.  0.]", shape="box"] ;
16 -> 20 ;
21 [label="X[4] <= 0.5000\nentropy = 0.722753771737\nsamples = 484", shape="box"] ;
1 -> 21 ;
22 [label="X[1] <= 1.5000\nentropy = 0.603805305699\nsamples = 271", shape="box"] ;
21 -> 22 ;
23 [label="X[7] <= 1.5000\nentropy = 0.811278124459\nsamples = 36", shape="box"] ;
22 -> 23 ;
24 [label="X[3] <= 1.5000\nentropy = 0.609840304716\nsamples = 20", shape="box"] ;
23 -> 24 ;
25 [label="entropy = 0.0000\nsamples = 8\nvalue = [ 8.  0.]", shape="box"] ;
24 -> 25 ;
26 [label="entropy = 0.8113\nsamples = 12\nvalue = [ 9.  3.]", shape="box"] ;
24 -> 26 ;
27 [label="X[2] <= 3.5000\nentropy = 0.954434002925\nsamples = 16", shape="box"] ;
23 -> 27 ;
28 [label="entropy = 1.0000\nsamples = 10\nvalue = [ 5.  5.]", shape="box"] ;
27 -> 28 ;
29 [label="entropy = 0.6500\nsamples = 6\nvalue = [ 5.  1.]", shape="box"] ;
27 -> 29 ;
30 [label="X[2] <= 3.5000\nentropy = 0.562666498122\nsamples = 235", shape="box"] ;
22 -> 30 ;
31 [label="X[3] <= 2.5000\nentropy = 0.58979515677\nsamples = 197", shape="box"] ;
30 -> 31 ;
32 [label="entropy = 0.6709\nsamples = 91\nvalue = [ 75.  16.]", shape="box"] ;
31 -> 32 ;
33 [label="entropy = 0.5095\nsamples = 106\nvalue = [ 94.  12.]", shape="box"] ;
31 -> 33 ;
34 [label="X[1] <= 2.5000\nentropy = 0.398459274095\nsamples = 38", shape="box"] ;
30 -> 34 ;
35 [label="entropy = 0.4912\nsamples = 28\nvalue = [ 25.   3.]", shape="box"] ;
34 -> 35 ;
36 [label="entropy = 0.0000\nsamples = 10\nvalue = [ 10.   0.]", shape="box"] ;
34 -> 36 ;
37 [label="X[1] <= 2.5000\nentropy = 0.838007850508\nsamples = 213", shape="box"] ;
21 -> 37 ;
38 [label="X[0] <= 1.5000\nentropy = 0.805125007465\nsamples = 195", shape="box"] ;
37 -> 38 ;
39 [label="X[6] <= 3.5000\nentropy = 0.650022421648\nsamples = 60", shape="box"] ;
38 -> 39 ;
40 [label="entropy = 0.6913\nsamples = 54\nvalue = [ 44.  10.]", shape="box"] ;
39 -> 40 ;
41 [label="entropy = 0.0000\nsamples = 6\nvalue = [ 6.  0.]", shape="box"] ;
39 -> 41 ;
42 [label="X[2] <= 3.5000\nentropy = 0.85746158814\nsamples = 135", shape="box"] ;
38 -> 42 ;
43 [label="entropy = 0.8793\nsamples = 124\nvalue = [ 87.  37.]", shape="box"] ;
42 -> 43 ;
44 [label="entropy = 0.4395\nsamples = 11\nvalue = [ 10.   1.]", shape="box"] ;
42 -> 44 ;
45 [label="X[3] <= 1.5000\nentropy = 1.0\nsamples = 18", shape="box"] ;
37 -> 45 ;
46 [label="entropy = 0.5436\nsamples = 8\nvalue = [ 1.  7.]", shape="box"] ;
45 -> 46 ;
47 [label="X[7] <= 1.5000\nentropy = 0.721928094887\nsamples = 10", shape="box"] ;
45 -> 47 ;
48 [label="entropy = 0.9710\nsamples = 5\nvalue = [ 3.  2.]", shape="box"] ;
47 -> 48 ;
49 [label="entropy = 0.0000\nsamples = 5\nvalue = [ 5.  0.]", shape="box"] ;
47 -> 49 ;
50 [label="X[0] <= 0.5000\nentropy = 0.980597440992\nsamples = 110", shape="box"] ;
0 -> 50 ;
51 [label="X[7] <= 1.5000\nentropy = 0.413816850304\nsamples = 12", shape="box"] ;
50 -> 51 ;
52 [label="entropy = 0.0000\nsamples = 7\nvalue = [ 7.  0.]", shape="box"] ;
51 -> 52 ;
53 [label="entropy = 0.7219\nsamples = 5\nvalue = [ 4.  1.]", shape="box"] ;
51 -> 53 ;
54 [label="X[6] <= 2.5000\nentropy = 0.995187666292\nsamples = 98", shape="box"] ;
50 -> 54 ;
55 [label="X[6] <= 1.5000\nentropy = 0.99323381974\nsamples = 62", shape="box"] ;
54 -> 55 ;
56 [label="X[3] <= 2.5000\nentropy = 0.989992791558\nsamples = 34", shape="box"] ;
55 -> 56 ;
57 [label="entropy = 0.9183\nsamples = 9\nvalue = [ 3.  6.]", shape="box"] ;
56 -> 57 ;
58 [label="X[0] <= 3.5000\nentropy = 0.942683189255\nsamples = 25", shape="box"] ;
56 -> 58 ;
59 [label="entropy = 0.8524\nsamples = 18\nvalue = [ 13.   5.]", shape="box"] ;
58 -> 59 ;
60 [label="entropy = 0.9852\nsamples = 7\nvalue = [ 3.  4.]", shape="box"] ;
58 -> 60 ;
61 [label="X[5] <= 2.5000\nentropy = 0.905928216043\nsamples = 28", shape="box"] ;
55 -> 61 ;
62 [label="entropy = 1.0000\nsamples = 8\nvalue = [ 4.  4.]", shape="box"] ;
61 -> 62 ;
63 [label="X[0] <= 2.5000\nentropy = 0.811278124459\nsamples = 20", shape="box"] ;
61 -> 63 ;
64 [label="entropy = 1.0000\nsamples = 8\nvalue = [ 4.  4.]", shape="box"] ;
63 -> 64 ;
65 [label="entropy = 0.4138\nsamples = 12\nvalue = [  1.  11.]", shape="box"] ;
63 -> 65 ;
66 [label="X[5] <= 3.5000\nentropy = 0.887976319515\nsamples = 36", shape="box"] ;
54 -> 66 ;
67 [label="X[1] <= 4.5000\nentropy = 0.650022421648\nsamples = 24", shape="box"] ;
66 -> 67 ;
68 [label="entropy = 0.0000\nsamples = 12\nvalue = [ 12.   0.]", shape="box"] ;
67 -> 68 ;
69 [label="X[6] <= 3.5000\nentropy = 0.918295834054\nsamples = 12", shape="box"] ;
67 -> 69 ;
70 [label="entropy = 0.5917\nsamples = 7\nvalue = [ 6.  1.]", shape="box"] ;
69 -> 70 ;
71 [label="entropy = 0.9710\nsamples = 5\nvalue = [ 2.  3.]", shape="box"] ;
69 -> 71 ;
72 [label="X[4] <= 0.5000\nentropy = 0.979868756651\nsamples = 12", shape="box"] ;
66 -> 72 ;
73 [label="entropy = 0.9183\nsamples = 6\nvalue = [ 2.  4.]", shape="box"] ;
72 -> 73 ;
74 [label="entropy = 1.0000\nsamples = 6\nvalue = [ 3.  3.]", shape="box"] ;
72 -> 74 ;
}