digraph Tree {
0 [label="X[0] <= 0.5000\nentropy = 0.940364903011\nsamples = 767", shape="box"] ;
1 [label="X[6] <= 3.5000\nentropy = 0.965636133371\nsamples = 138", shape="box"] ;
0 -> 1 ;
2 [label="X[5] <= 3.5000\nentropy = 0.946280454113\nsamples = 118", shape="box"] ;
1 -> 2 ;
3 [label="X[1] <= 1.5000\nentropy = 0.918295834054\nsamples = 96", shape="box"] ;
2 -> 3 ;
4 [label="X[4] <= 0.5000\nentropy = 0.997502546369\nsamples = 17", shape="box"] ;
3 -> 4 ;
5 [label="X[6] <= 2.5000\nentropy = 0.918295834054\nsamples = 12", shape="box"] ;
4 -> 5 ;
6 [label="entropy = 0.5917\nsamples = 7\nvalue = [ 6.  1.]", shape="box"] ;
5 -> 6 ;
7 [label="entropy = 0.9710\nsamples = 5\nvalue = [ 2.  3.]", shape="box"] ;
5 -> 7 ;
8 [label="entropy = 0.7219\nsamples = 5\nvalue = [ 1.  4.]", shape="box"] ;
4 -> 8 ;
9 [label="X[5] <= 2.5000\nentropy = 0.885883479048\nsamples = 79", shape="box"] ;
3 -> 9 ;
10 [label="X[7] <= 1.5000\nentropy = 0.966618632548\nsamples = 28", shape="box"] ;
9 -> 10 ;
11 [label="entropy = 1.0000\nsamples = 18\nvalue = [ 9.  9.]", shape="box"] ;
10 -> 11 ;
12 [label="entropy = 0.7219\nsamples = 10\nvalue = [ 8.  2.]", shape="box"] ;
10 -> 12 ;
13 [label="X[2] <= 1.5000\nentropy = 0.81895550184\nsamples = 51", shape="box"] ;
9 -> 13 ;
14 [label="entropy = 0.4690\nsamples = 10\nvalue = [ 9.  1.]", shape="box"] ;
13 -> 14 ;
15 [label="entropy = 0.8722\nsamples = 41\nvalue = [ 29.  12.]", shape="box"] ;
13 -> 15 ;
16 [label="X[3] <= 1.5000\nentropy = 1.0\nsamples = 22", shape="box"] ;
2 -> 16 ;
17 [label="X[1] <= 2.5000\nentropy = 0.881290899231\nsamples = 10", shape="box"] ;
16 -> 17 ;
18 [label="entropy = 0.0000\nsamples = 5\nvalue = [ 5.  0.]", shape="box"] ;
17 -> 18 ;
19 [label="entropy = 0.9710\nsamples = 5\nvalue = [ 2.  3.]", shape="box"] ;
17 -> 19 ;
20 [label="X[7] <= 1.5000\nentropy = 0.918295834054\nsamples = 12", shape="box"] ;
16 -> 20 ;
21 [label="entropy = 0.6500\nsamples = 6\nvalue = [ 1.  5.]", shape="box"] ;
20 -> 21 ;
22 [label="entropy = 1.0000\nsamples = 6\nvalue = [ 3.  3.]", shape="box"] ;
20 -> 22 ;
23 [label="X[1] <= 2.5000\nentropy = 0.992774453988\nsamples = 20", shape="box"] ;
1 -> 23 ;
24 [label="X[3] <= 1.5000\nentropy = 0.985228136034\nsamples = 14", shape="box"] ;
23 -> 24 ;
25 [label="entropy = 0.8631\nsamples = 7\nvalue = [ 2.  5.]", shape="box"] ;
24 -> 25 ;
26 [label="entropy = 0.5917\nsamples = 7\nvalue = [ 6.  1.]", shape="box"] ;
24 -> 26 ;
27 [label="entropy = 0.6500\nsamples = 6\nvalue = [ 1.  5.]", shape="box"] ;
23 -> 27 ;
28 [label="X[0] <= 3.5000\nentropy = 0.883802652906\nsamples = 629", shape="box"] ;
0 -> 28 ;
29 [label="X[7] <= 1.5000\nentropy = 0.915516344472\nsamples = 484", shape="box"] ;
28 -> 29 ;
30 [label="X[2] <= 4.5000\nentropy = 0.840110102269\nsamples = 223", shape="box"] ;
29 -> 30 ;
31 [label="X[5] <= 5.5000\nentropy = 0.863120568567\nsamples = 210", shape="box"] ;
30 -> 31 ;
32 [label="X[0] <= 1.5000\nentropy = 0.847861745166\nsamples = 204", shape="box"] ;
31 -> 32 ;
33 [label="entropy = 0.9544\nsamples = 40\nvalue = [ 15.  25.]", shape="box"] ;
32 -> 33 ;
34 [label="entropy = 0.8113\nsamples = 164\nvalue = [  41.  123.]", shape="box"] ;
32 -> 34 ;
35 [label="entropy = 0.9183\nsamples = 6\nvalue = [ 4.  2.]", shape="box"] ;
31 -> 35 ;
36 [label="entropy = 0.0000\nsamples = 13\nvalue = [  0.  13.]", shape="box"] ;
30 -> 36 ;
37 [label="X[3] <= 1.5000\nentropy = 0.960230761497\nsamples = 261", shape="box"] ;
29 -> 37 ;
38 [label="X[1] <= 2.5000\nentropy = 0.99976152487\nsamples = 55", shape="box"] ;
37 -> 38 ;
39 [label="X[0] <= 1.5000\nentropy = 0.989587521222\nsamples = 50", shape="box"] ;
38 -> 39 ;
40 [label="entropy = 0.9544\nsamples = 16\nvalue = [  6.  10.]", shape="box"] ;
39 -> 40 ;
41 [label="entropy = 0.9367\nsamples = 34\nvalue = [ 22.  12.]", shape="box"] ;
39 -> 41 ;
42 [label="entropy = 0.0000\nsamples = 5\nvalue = [ 0.  5.]", shape="box"] ;
38 -> 42 ;
43 [label="X[2] <= 1.5000\nentropy = 0.933633771721\nsamples = 206", shape="box"] ;
37 -> 43 ;
44 [label="X[6] <= 3.5000\nentropy = 0.999249247996\nsamples = 31", shape="box"] ;
43 -> 44 ;
45 [label="entropy = 0.9457\nsamples = 22\nvalue = [  8.  14.]", shape="box"] ;
44 -> 45 ;
46 [label="entropy = 0.7642\nsamples = 9\nvalue = [ 7.  2.]", shape="box"] ;
44 -> 46 ;
47 [label="X[6] <= 1.5000\nentropy = 0.910487622506\nsamples = 175", shape="box"] ;
43 -> 47 ;
48 [label="entropy = 0.9892\nsamples = 41\nvalue = [ 18.  23.]", shape="box"] ;
47 -> 48 ;
49 [label="entropy = 0.8701\nsamples = 134\nvalue = [ 39.  95.]", shape="box"] ;
47 -> 49 ;
50 [label="X[1] <= 4.5000\nentropy = 0.735508581554\nsamples = 145", shape="box"] ;
28 -> 50 ;
51 [label="X[4] <= 0.5000\nentropy = 0.678114052361\nsamples = 134", shape="box"] ;
50 -> 51 ;
52 [label="X[3] <= 1.5000\nentropy = 0.773226674288\nsamples = 88", shape="box"] ;
51 -> 52 ;
53 [label="entropy = 0.9710\nsamples = 5\nvalue = [ 3.  2.]", shape="box"] ;
52 -> 53 ;
54 [label="X[2] <= 3.5000\nentropy = 0.731462561721\nsamples = 83", shape="box"] ;
52 -> 54 ;
55 [label="entropy = 0.7813\nsamples = 69\nvalue = [ 16.  53.]", shape="box"] ;
54 -> 55 ;
56 [label="entropy = 0.3712\nsamples = 14\nvalue = [  1.  13.]", shape="box"] ;
54 -> 56 ;
57 [label="X[7] <= 1.5000\nentropy = 0.426228656998\nsamples = 46", shape="box"] ;
51 -> 57 ;
58 [label="X[2] <= 3.5000\nentropy = 0.721928094887\nsamples = 20", shape="box"] ;
57 -> 58 ;
59 [label="entropy = 0.8631\nsamples = 14\nvalue = [  4.  10.]", shape="box"] ;
58 -> 59 ;
60 [label="entropy = 0.0000\nsamples = 6\nvalue = [ 0.  6.]", shape="box"] ;
58 -> 60 ;
61 [label="entropy = 0.0000\nsamples = 26\nvalue = [  0.  26.]", shape="box"] ;
57 -> 61 ;
62 [label="X[2] <= 2.5000\nentropy = 0.994030211477\nsamples = 11", shape="box"] ;
50 -> 62 ;
63 [label="entropy = 0.9710\nsamples = 5\nvalue = [ 2.  3.]", shape="box"] ;
62 -> 63 ;
64 [label="entropy = 0.9183\nsamples = 6\nvalue = [ 4.  2.]", shape="box"] ;
62 -> 64 ;
}