digraph Tree {
0 [label="X[6] <= 2.5000\nentropy = 0.873010344507\nsamples = 767", shape="box"] ;
1 [label="X[2] <= 4.5000\nentropy = 0.92596402573\nsamples = 466", shape="box"] ;
0 -> 1 ;
2 [label="X[5] <= 2.5000\nentropy = 0.937988345692\nsamples = 426", shape="box"] ;
1 -> 2 ;
3 [label="X[0] <= 3.5000\nentropy = 0.988885904243\nsamples = 121", shape="box"] ;
2 -> 3 ;
4 [label="X[0] <= 1.5000\nentropy = 0.963335545673\nsamples = 98", shape="box"] ;
3 -> 4 ;
5 [label="X[3] <= 2.5000\nentropy = 0.863120568567\nsamples = 35", shape="box"] ;
4 -> 5 ;
6 [label="entropy = 0.9510\nsamples = 27\nvalue = [ 17.  10.]", shape="box"] ;
5 -> 6 ;
7 [label="entropy = 0.0000\nsamples = 8\nvalue = [ 8.  0.]", shape="box"] ;
5 -> 7 ;
8 [label="X[2] <= 2.5000\nentropy = 0.991076059838\nsamples = 63", shape="box"] ;
4 -> 8 ;
9 [label="entropy = 1.0000\nsamples = 38\nvalue = [ 19.  19.]", shape="box"] ;
8 -> 9 ;
10 [label="entropy = 0.9427\nsamples = 25\nvalue = [ 16.   9.]", shape="box"] ;
8 -> 10 ;
11 [label="X[6] <= 1.5000\nentropy = 0.932111567617\nsamples = 23", shape="box"] ;
3 -> 11 ;
12 [label="X[2] <= 2.5000\nentropy = 1.0\nsamples = 10", shape="box"] ;
11 -> 12 ;
13 [label="entropy = 0.9710\nsamples = 5\nvalue = [ 3.  2.]", shape="box"] ;
12 -> 13 ;
14 [label="entropy = 0.9710\nsamples = 5\nvalue = [ 2.  3.]", shape="box"] ;
12 -> 14 ;
15 [label="X[2] <= 2.5000\nentropy = 0.779349837292\nsamples = 13", shape="box"] ;
11 -> 15 ;
16 [label="entropy = 0.5917\nsamples = 7\nvalue = [ 1.  6.]", shape="box"] ;
15 -> 16 ;
17 [label="entropy = 0.9183\nsamples = 6\nvalue = [ 2.  4.]", shape="box"] ;
15 -> 17 ;
18 [label="X[2] <= 2.5000\nentropy = 0.905801940891\nsamples = 305", shape="box"] ;
2 -> 18 ;
19 [label="X[1] <= 2.5000\nentropy = 0.868040398617\nsamples = 190", shape="box"] ;
18 -> 19 ;
20 [label="X[0] <= 2.5000\nentropy = 0.828908453487\nsamples = 153", shape="box"] ;
19 -> 20 ;
21 [label="entropy = 0.7544\nsamples = 83\nvalue = [ 65.  18.]", shape="box"] ;
20 -> 21 ;
22 [label="entropy = 0.8981\nsamples = 70\nvalue = [ 48.  22.]", shape="box"] ;
20 -> 22 ;
23 [label="X[6] <= 1.5000\nentropy = 0.974024864436\nsamples = 37", shape="box"] ;
19 -> 23 ;
24 [label="entropy = 0.7871\nsamples = 17\nvalue = [ 13.   4.]", shape="box"] ;
23 -> 24 ;
25 [label="entropy = 0.9928\nsamples = 20\nvalue = [  9.  11.]", shape="box"] ;
23 -> 25 ;
26 [label="X[1] <= 2.5000\nentropy = 0.953629315674\nsamples = 115", shape="box"] ;
18 -> 26 ;
27 [label="X[7] <= 1.5000\nentropy = 0.979411634656\nsamples = 89", shape="box"] ;
26 -> 27 ;
28 [label="entropy = 0.9052\nsamples = 53\nvalue = [ 36.  17.]", shape="box"] ;
27 -> 28 ;
29 [label="entropy = 0.9911\nsamples = 36\nvalue = [ 16.  20.]", shape="box"] ;
27 -> 29 ;
30 [label="X[5] <= 3.5000\nentropy = 0.779349837292\nsamples = 26", shape="box"] ;
26 -> 30 ;
31 [label="entropy = 0.9852\nsamples = 14\nvalue = [ 8.  6.]", shape="box"] ;
30 -> 31 ;
32 [label="entropy = 0.0000\nsamples = 12\nvalue = [ 12.   0.]", shape="box"] ;
30 -> 32 ;
33 [label="X[4] <= 0.5000\nentropy = 0.721928094887\nsamples = 40", shape="box"] ;
1 -> 33 ;
34 [label="X[7] <= 1.5000\nentropy = 0.503258334776\nsamples = 27", shape="box"] ;
33 -> 34 ;
35 [label="X[1] <= 4.5000\nentropy = 0.721928094887\nsamples = 15", shape="box"] ;
34 -> 35 ;
36 [label="entropy = 0.5033\nsamples = 9\nvalue = [ 8.  1.]", shape="box"] ;
35 -> 36 ;
37 [label="entropy = 0.9183\nsamples = 6\nvalue = [ 4.  2.]", shape="box"] ;
35 -> 37 ;
38 [label="entropy = 0.0000\nsamples = 12\nvalue = [ 12.   0.]", shape="box"] ;
34 -> 38 ;
39 [label="X[0] <= 3.5000\nentropy = 0.961236604723\nsamples = 13", shape="box"] ;
33 -> 39 ;
40 [label="entropy = 0.5917\nsamples = 7\nvalue = [ 6.  1.]", shape="box"] ;
39 -> 40 ;
41 [label="entropy = 0.9183\nsamples = 6\nvalue = [ 2.  4.]", shape="box"] ;
39 -> 41 ;
42 [label="X[7] <= 1.5000\nentropy = 0.758830659084\nsamples = 301", shape="box"] ;
0 -> 42 ;
43 [label="X[4] <= 0.5000\nentropy = 0.873172060348\nsamples = 92", shape="box"] ;
42 -> 43 ;
44 [label="X[0] <= 2.5000\nentropy = 0.948613198239\nsamples = 49", shape="box"] ;
43 -> 44 ;
45 [label="X[6] <= 3.5000\nentropy = 0.863120568567\nsamples = 28", shape="box"] ;
44 -> 45 ;
46 [label="X[2] <= 2.5000\nentropy = 0.958711882977\nsamples = 21", shape="box"] ;
45 -> 46 ;
47 [label="entropy = 0.8631\nsamples = 14\nvalue = [ 10.   4.]", shape="box"] ;
46 -> 47 ;
48 [label="entropy = 0.9852\nsamples = 7\nvalue = [ 3.  4.]", shape="box"] ;
46 -> 48 ;
49 [label="entropy = 0.0000\nsamples = 7\nvalue = [ 7.  0.]", shape="box"] ;
45 -> 49 ;
50 [label="X[5] <= 3.5000\nentropy = 0.998363672594\nsamples = 21", shape="box"] ;
44 -> 50 ;
51 [label="X[0] <= 3.5000\nentropy = 0.988699408288\nsamples = 16", shape="box"] ;
50 -> 51 ;
52 [label="entropy = 0.8813\nsamples = 10\nvalue = [ 7.  3.]", shape="box"] ;
51 -> 52 ;
53 [label="entropy = 0.9183\nsamples = 6\nvalue = [ 2.  4.]", shape="box"] ;
51 -> 53 ;
54 [label="entropy = 0.9710\nsamples = 5\nvalue = [ 2.  3.]", shape="box"] ;
50 -> 54 ;
55 [label="X[6] <= 3.5000\nentropy = 0.740147042714\nsamples = 43", shape="box"] ;
43 -> 55 ;
56 [label="X[3] <= 1.5000\nentropy = 0.532835063034\nsamples = 33", shape="box"] ;
55 -> 56 ;
57 [label="entropy = 0.0000\nsamples = 11\nvalue = [ 11.   0.]", shape="box"] ;
56 -> 57 ;
58 [label="X[1] <= 2.5000\nentropy = 0.684038435639\nsamples = 22", shape="box"] ;
56 -> 58 ;
59 [label="entropy = 0.8113\nsamples = 16\nvalue = [ 12.   4.]", shape="box"] ;
58 -> 59 ;
60 [label="entropy = 0.0000\nsamples = 6\nvalue = [ 6.  0.]", shape="box"] ;
58 -> 60 ;
61 [label="X[1] <= 2.5000\nentropy = 1.0\nsamples = 10", shape="box"] ;
55 -> 61 ;
62 [label="entropy = 0.9710\nsamples = 5\nvalue = [ 2.  3.]", shape="box"] ;
61 -> 62 ;
63 [label="entropy = 0.9710\nsamples = 5\nvalue = [ 3.  2.]", shape="box"] ;
61 -> 63 ;
64 [label="X[7] <= 2.5000\nentropy = 0.694310588162\nsamples = 209", shape="box"] ;
42 -> 64 ;
65 [label="X[2] <= 2.5000\nentropy = 0.623894871157\nsamples = 167", shape="box"] ;
64 -> 65 ;
66 [label="X[2] <= 1.5000\nentropy = 0.708835673332\nsamples = 93", shape="box"] ;
65 -> 66 ;
67 [label="X[6] <= 3.5000\nentropy = 0.391243563629\nsamples = 26", shape="box"] ;
66 -> 67 ;
68 [label="entropy = 0.5226\nsamples = 17\nvalue = [ 15.   2.]", shape="box"] ;
67 -> 68 ;
69 [label="entropy = 0.0000\nsamples = 9\nvalue = [ 9.  0.]", shape="box"] ;
67 -> 69 ;
70 [label="X[4] <= 0.5000\nentropy = 0.793049004778\nsamples = 67", shape="box"] ;
66 -> 70 ;
71 [label="entropy = 0.8673\nsamples = 45\nvalue = [ 32.  13.]", shape="box"] ;
70 -> 71 ;
72 [label="entropy = 0.5746\nsamples = 22\nvalue = [ 19.   3.]", shape="box"] ;
70 -> 72 ;
73 [label="X[3] <= 1.5000\nentropy = 0.49418293485\nsamples = 74", shape="box"] ;
65 -> 73 ;
74 [label="X[5] <= 2.5000\nentropy = 0.791858352567\nsamples = 21", shape="box"] ;
73 -> 74 ;
75 [label="entropy = 0.0000\nsamples = 7\nvalue = [ 7.  0.]", shape="box"] ;
74 -> 75 ;
76 [label="entropy = 0.9403\nsamples = 14\nvalue = [ 9.  5.]", shape="box"] ;
74 -> 76 ;
77 [label="X[2] <= 4.5000\nentropy = 0.313812964169\nsamples = 53", shape="box"] ;
73 -> 77 ;
78 [label="entropy = 0.0000\nsamples = 41\nvalue = [ 41.   0.]", shape="box"] ;
77 -> 78 ;
79 [label="entropy = 0.8113\nsamples = 12\nvalue = [ 9.  3.]", shape="box"] ;
77 -> 79 ;
80 [label="X[0] <= 1.5000\nentropy = 0.892623013385\nsamples = 42", shape="box"] ;
64 -> 80 ;
81 [label="entropy = 0.9911\nsamples = 9\nvalue = [ 4.  5.]", shape="box"] ;
80 -> 81 ;
82 [label="X[5] <= 2.5000\nentropy = 0.799048521044\nsamples = 33", shape="box"] ;
80 -> 82 ;
83 [label="entropy = 0.9852\nsamples = 7\nvalue = [ 3.  4.]", shape="box"] ;
82 -> 83 ;
84 [label="X[4] <= 0.5000\nentropy = 0.619382194679\nsamples = 26", shape="box"] ;
82 -> 84 ;
85 [label="entropy = 0.7496\nsamples = 14\nvalue = [ 11.   3.]", shape="box"] ;
84 -> 85 ;
86 [label="entropy = 0.4138\nsamples = 12\nvalue = [ 11.   1.]", shape="box"] ;
84 -> 86 ;
}