digraph Tree {
0 [label="X[5] <= 1.5000\nentropy = 0.788298383861\nsamples = 767", shape="box"] ;
1 [label="X[6] <= 1.5000\nentropy = 1.0\nsamples = 14", shape="box"] ;
0 -> 1 ;
2 [label="entropy = 0.9183\nsamples = 6\nvalue = [ 4.  2.]", shape="box"] ;
1 -> 2 ;
3 [label="entropy = 0.9544\nsamples = 8\nvalue = [ 3.  5.]", shape="box"] ;
1 -> 3 ;
4 [label="X[0] <= 1.5000\nentropy = 0.779881777416\nsamples = 753", shape="box"] ;
0 -> 4 ;
5 [label="X[7] <= 2.5000\nentropy = 0.700749549716\nsamples = 232", shape="box"] ;
4 -> 5 ;
6 [label="X[2] <= 1.5000\nentropy = 0.651770548338\nsamples = 221", shape="box"] ;
5 -> 6 ;
7 [label="X[6] <= 2.5000\nentropy = 0.315997132978\nsamples = 35", shape="box"] ;
6 -> 7 ;
8 [label="entropy = 0.0000\nsamples = 18\nvalue = [ 18.   0.]", shape="box"] ;
7 -> 8 ;
9 [label="X[0] <= 0.5000\nentropy = 0.522559374537\nsamples = 17", shape="box"] ;
7 -> 9 ;
10 [label="entropy = 0.7219\nsamples = 10\nvalue = [ 8.  2.]", shape="box"] ;
9 -> 10 ;
11 [label="entropy = 0.0000\nsamples = 7\nvalue = [ 7.  0.]", shape="box"] ;
9 -> 11 ;
12 [label="X[1] <= 4.5000\nentropy = 0.697631815242\nsamples = 186", shape="box"] ;
6 -> 12 ;
13 [label="X[2] <= 3.5000\nentropy = 0.677380946589\nsamples = 179", shape="box"] ;
12 -> 13 ;
14 [label="entropy = 0.7335\nsamples = 136\nvalue = [ 108.   28.]", shape="box"] ;
13 -> 14 ;
15 [label="entropy = 0.4465\nsamples = 43\nvalue = [ 39.   4.]", shape="box"] ;
13 -> 15 ;
16 [label="entropy = 0.9852\nsamples = 7\nvalue = [ 4.  3.]", shape="box"] ;
12 -> 16 ;
17 [label="X[3] <= 2.0000\nentropy = 0.945660304601\nsamples = 11", shape="box"] ;
5 -> 17 ;
18 [label="entropy = 0.0000\nsamples = 6\nvalue = [ 0.  6.]", shape="box"] ;
17 -> 18 ;
19 [label="entropy = 0.7219\nsamples = 5\nvalue = [ 4.  1.]", shape="box"] ;
17 -> 19 ;
20 [label="X[6] <= 1.5000\nentropy = 0.810516699628\nsamples = 521", shape="box"] ;
4 -> 20 ;
21 [label="X[5] <= 5.5000\nentropy = 0.899349319724\nsamples = 149", shape="box"] ;
20 -> 21 ;
22 [label="X[5] <= 3.5000\nentropy = 0.915930508094\nsamples = 142", shape="box"] ;
21 -> 22 ;
23 [label="X[0] <= 2.5000\nentropy = 0.853873846546\nsamples = 104", shape="box"] ;
22 -> 23 ;
24 [label="entropy = 0.9523\nsamples = 43\nvalue = [ 27.  16.]", shape="box"] ;
23 -> 24 ;
25 [label="entropy = 0.7474\nsamples = 61\nvalue = [ 48.  13.]", shape="box"] ;
23 -> 25 ;
26 [label="X[2] <= 3.5000\nentropy = 0.998000883872\nsamples = 38", shape="box"] ;
22 -> 26 ;
27 [label="entropy = 0.9871\nsamples = 30\nvalue = [ 13.  17.]", shape="box"] ;
26 -> 27 ;
28 [label="entropy = 0.5436\nsamples = 8\nvalue = [ 7.  1.]", shape="box"] ;
26 -> 28 ;
29 [label="entropy = 0.0000\nsamples = 7\nvalue = [ 7.  0.]", shape="box"] ;
21 -> 29 ;
30 [label="X[5] <= 4.5000\nentropy = 0.765820652386\nsamples = 372", shape="box"] ;
20 -> 30 ;
31 [label="X[7] <= 1.5000\nentropy = 0.748850745344\nsamples = 360", shape="box"] ;
30 -> 31 ;
32 [label="X[5] <= 3.5000\nentropy = 0.824840968163\nsamples = 143", shape="box"] ;
31 -> 32 ;
33 [label="entropy = 0.8802\nsamples = 117\nvalue = [ 82.  35.]", shape="box"] ;
32 -> 33 ;
34 [label="entropy = 0.3912\nsamples = 26\nvalue = [ 24.   2.]", shape="box"] ;
32 -> 34 ;
35 [label="X[3] <= 2.5000\nentropy = 0.689462263964\nsamples = 217", shape="box"] ;
31 -> 35 ;
36 [label="entropy = 0.5328\nsamples = 66\nvalue = [ 58.   8.]", shape="box"] ;
35 -> 36 ;
37 [label="entropy = 0.7451\nsamples = 151\nvalue = [ 119.   32.]", shape="box"] ;
35 -> 37 ;
38 [label="X[7] <= 1.5000\nentropy = 1.0\nsamples = 12", shape="box"] ;
30 -> 38 ;
39 [label="entropy = 0.7219\nsamples = 5\nvalue = [ 4.  1.]", shape="box"] ;
38 -> 39 ;
40 [label="entropy = 0.8631\nsamples = 7\nvalue = [ 2.  5.]", shape="box"] ;
38 -> 40 ;
}