digraph Tree {
0 [label="X[0] <= 0.5000\nentropy = 0.767852880365\nsamples = 767", shape="box"] ;
1 [label="X[1] <= 1.5000\nentropy = 0.990281404424\nsamples = 138", shape="box"] ;
0 -> 1 ;
2 [label="X[4] <= 0.5000\nentropy = 0.870864469235\nsamples = 24", shape="box"] ;
1 -> 2 ;
3 [label="X[6] <= 2.5000\nentropy = 0.672294817076\nsamples = 17", shape="box"] ;
2 -> 3 ;
4 [label="entropy = 0.0000\nsamples = 8\nvalue = [ 8.  0.]", shape="box"] ;
3 -> 4 ;
5 [label="entropy = 0.9183\nsamples = 9\nvalue = [ 6.  3.]", shape="box"] ;
3 -> 5 ;
6 [label="entropy = 0.9852\nsamples = 7\nvalue = [ 3.  4.]", shape="box"] ;
2 -> 6 ;
7 [label="X[5] <= 2.5000\nentropy = 0.962146133409\nsamples = 114", shape="box"] ;
1 -> 7 ;
8 [label="X[7] <= 1.5000\nentropy = 0.996791631982\nsamples = 30", shape="box"] ;
7 -> 8 ;
9 [label="X[6] <= 1.5000\nentropy = 0.981940786864\nsamples = 19", shape="box"] ;
8 -> 9 ;
10 [label="entropy = 0.9183\nsamples = 6\nvalue = [ 4.  2.]", shape="box"] ;
9 -> 10 ;
11 [label="X[2] <= 4.5000\nentropy = 0.890491640219\nsamples = 13", shape="box"] ;
9 -> 11 ;
12 [label="entropy = 0.5436\nsamples = 8\nvalue = [ 1.  7.]", shape="box"] ;
11 -> 12 ;
13 [label="entropy = 0.9710\nsamples = 5\nvalue = [ 3.  2.]", shape="box"] ;
11 -> 13 ;
14 [label="X[6] <= 1.5000\nentropy = 0.845350936622\nsamples = 11", shape="box"] ;
8 -> 14 ;
15 [label="entropy = 0.9710\nsamples = 5\nvalue = [ 3.  2.]", shape="box"] ;
14 -> 15 ;
16 [label="entropy = 0.6500\nsamples = 6\nvalue = [ 5.  1.]", shape="box"] ;
14 -> 16 ;
17 [label="X[3] <= 1.5000\nentropy = 0.918295834054\nsamples = 84", shape="box"] ;
7 -> 17 ;
18 [label="X[2] <= 3.5000\nentropy = 0.986544630006\nsamples = 44", shape="box"] ;
17 -> 18 ;
19 [label="X[5] <= 3.5000\nentropy = 0.918295834054\nsamples = 36", shape="box"] ;
18 -> 19 ;
20 [label="entropy = 0.7950\nsamples = 25\nvalue = [  6.  19.]", shape="box"] ;
19 -> 20 ;
21 [label="entropy = 0.9940\nsamples = 11\nvalue = [ 6.  5.]", shape="box"] ;
19 -> 21 ;
22 [label="entropy = 0.5436\nsamples = 8\nvalue = [ 7.  1.]", shape="box"] ;
18 -> 22 ;
23 [label="X[6] <= 3.5000\nentropy = 0.769192829013\nsamples = 40", shape="box"] ;
17 -> 23 ;
24 [label="X[2] <= 3.5000\nentropy = 0.613619019599\nsamples = 33", shape="box"] ;
23 -> 24 ;
25 [label="entropy = 0.7063\nsamples = 26\nvalue = [  5.  21.]", shape="box"] ;
24 -> 25 ;
26 [label="entropy = 0.0000\nsamples = 7\nvalue = [ 0.  7.]", shape="box"] ;
24 -> 26 ;
27 [label="entropy = 0.9852\nsamples = 7\nvalue = [ 4.  3.]", shape="box"] ;
23 -> 27 ;
28 [label="X[0] <= 2.5000\nentropy = 0.672294817076\nsamples = 629", shape="box"] ;
0 -> 28 ;
29 [label="X[4] <= 0.5000\nentropy = 0.752337221021\nsamples = 292", shape="box"] ;
28 -> 29 ;
30 [label="X[1] <= 1.5000\nentropy = 0.822927484449\nsamples = 167", shape="box"] ;
29 -> 30 ;
31 [label="X[6] <= 1.5000\nentropy = 0.485460760746\nsamples = 19", shape="box"] ;
30 -> 31 ;
32 [label="entropy = 0.0000\nsamples = 7\nvalue = [ 0.  7.]", shape="box"] ;
31 -> 32 ;
33 [label="X[6] <= 2.5000\nentropy = 0.650022421648\nsamples = 12", shape="box"] ;
31 -> 33 ;
34 [label="entropy = 0.7219\nsamples = 5\nvalue = [ 1.  4.]", shape="box"] ;
33 -> 34 ;
35 [label="entropy = 0.5917\nsamples = 7\nvalue = [ 1.  6.]", shape="box"] ;
33 -> 35 ;
36 [label="X[5] <= 4.5000\nentropy = 0.851368232289\nsamples = 148", shape="box"] ;
30 -> 36 ;
37 [label="X[3] <= 2.5000\nentropy = 0.877718819956\nsamples = 138", shape="box"] ;
36 -> 37 ;
38 [label="entropy = 0.8010\nsamples = 78\nvalue = [ 19.  59.]", shape="box"] ;
37 -> 38 ;
39 [label="entropy = 0.9481\nsamples = 60\nvalue = [ 22.  38.]", shape="box"] ;
37 -> 39 ;
40 [label="entropy = 0.0000\nsamples = 10\nvalue = [  0.  10.]", shape="box"] ;
36 -> 40 ;
41 [label="X[2] <= 1.5000\nentropy = 0.634309554641\nsamples = 125", shape="box"] ;
29 -> 41 ;
42 [label="X[5] <= 2.5000\nentropy = 0.811278124459\nsamples = 28", shape="box"] ;
41 -> 42 ;
43 [label="entropy = 0.0000\nsamples = 5\nvalue = [ 0.  5.]", shape="box"] ;
42 -> 43 ;
44 [label="X[3] <= 2.5000\nentropy = 0.886540892822\nsamples = 23", shape="box"] ;
42 -> 44 ;
45 [label="entropy = 0.9710\nsamples = 10\nvalue = [ 4.  6.]", shape="box"] ;
44 -> 45 ;
46 [label="entropy = 0.7793\nsamples = 13\nvalue = [  3.  10.]", shape="box"] ;
44 -> 46 ;
47 [label="X[7] <= 2.5000\nentropy = 0.568362534463\nsamples = 97", shape="box"] ;
41 -> 47 ;
48 [label="X[5] <= 3.5000\nentropy = 0.604123458148\nsamples = 88", shape="box"] ;
47 -> 48 ;
49 [label="entropy = 0.6559\nsamples = 65\nvalue = [ 11.  54.]", shape="box"] ;
48 -> 49 ;
50 [label="entropy = 0.4262\nsamples = 23\nvalue = [  2.  21.]", shape="box"] ;
48 -> 50 ;
51 [label="entropy = 0.0000\nsamples = 9\nvalue = [ 0.  9.]", shape="box"] ;
47 -> 51 ;
52 [label="X[2] <= 2.5000\nentropy = 0.590575931694\nsamples = 337", shape="box"] ;
28 -> 52 ;
53 [label="X[1] <= 3.5000\nentropy = 0.696882937678\nsamples = 197", shape="box"] ;
52 -> 53 ;
54 [label="X[3] <= 1.5000\nentropy = 0.654352442307\nsamples = 178", shape="box"] ;
53 -> 54 ;
55 [label="X[7] <= 1.5000\nentropy = 0.890491640219\nsamples = 26", shape="box"] ;
54 -> 55 ;
56 [label="entropy = 0.9710\nsamples = 15\nvalue = [ 6.  9.]", shape="box"] ;
55 -> 56 ;
57 [label="entropy = 0.6840\nsamples = 11\nvalue = [ 2.  9.]", shape="box"] ;
55 -> 57 ;
58 [label="X[1] <= 1.5000\nentropy = 0.596510991709\nsamples = 152", shape="box"] ;
54 -> 58 ;
59 [label="entropy = 0.0000\nsamples = 9\nvalue = [ 0.  9.]", shape="box"] ;
58 -> 59 ;
60 [label="entropy = 0.6194\nsamples = 143\nvalue = [  22.  121.]", shape="box"] ;
58 -> 60 ;
61 [label="X[0] <= 3.5000\nentropy = 0.949452015388\nsamples = 19", shape="box"] ;
53 -> 61 ;
62 [label="entropy = 0.9457\nsamples = 11\nvalue = [ 7.  4.]", shape="box"] ;
61 -> 62 ;
63 [label="entropy = 0.0000\nsamples = 8\nvalue = [ 0.  8.]", shape="box"] ;
61 -> 63 ;
64 [label="X[7] <= 2.5000\nentropy = 0.397125418698\nsamples = 140", shape="box"] ;
52 -> 64 ;
65 [label="X[6] <= 3.5000\nentropy = 0.331672740799\nsamples = 131", shape="box"] ;
64 -> 65 ;
66 [label="X[6] <= 2.5000\nentropy = 0.364299028815\nsamples = 115", shape="box"] ;
65 -> 66 ;
67 [label="entropy = 0.2714\nsamples = 86\nvalue = [  4.  82.]", shape="box"] ;
66 -> 67 ;
68 [label="entropy = 0.5788\nsamples = 29\nvalue = [  4.  25.]", shape="box"] ;
66 -> 68 ;
69 [label="entropy = 0.0000\nsamples = 16\nvalue = [  0.  16.]", shape="box"] ;
65 -> 69 ;
70 [label="entropy = 0.9183\nsamples = 9\nvalue = [ 3.  6.]", shape="box"] ;
64 -> 70 ;
}