digraph Tree {
0 [label="X[1] <= 2.5000\nentropy = 0.913440940791\nsamples = 767", shape="box"] ;
1 [label="X[5] <= 1.5000\nentropy = 0.843788603458\nsamples = 578", shape="box"] ;
0 -> 1 ;
2 [label="entropy = 0.7219\nsamples = 5\nvalue = [ 1.  4.]", shape="box"] ;
1 -> 2 ;
3 [label="X[0] <= 1.5000\nentropy = 0.83714969289\nsamples = 573", shape="box"] ;
1 -> 3 ;
4 [label="X[2] <= 4.5000\nentropy = 0.728472702944\nsamples = 182", shape="box"] ;
3 -> 4 ;
5 [label="X[5] <= 4.5000\nentropy = 0.75114917255\nsamples = 172", shape="box"] ;
4 -> 5 ;
6 [label="X[2] <= 1.5000\nentropy = 0.77027926225\nsamples = 164", shape="box"] ;
5 -> 6 ;
7 [label="entropy = 0.9760\nsamples = 22\nvalue = [ 13.   9.]", shape="box"] ;
6 -> 7 ;
8 [label="entropy = 0.7163\nsamples = 142\nvalue = [ 114.   28.]", shape="box"] ;
6 -> 8 ;
9 [label="entropy = 0.0000\nsamples = 8\nvalue = [ 8.  0.]", shape="box"] ;
5 -> 9 ;
10 [label="entropy = 0.0000\nsamples = 10\nvalue = [ 10.   0.]", shape="box"] ;
4 -> 10 ;
11 [label="X[7] <= 1.5000\nentropy = 0.877188626596\nsamples = 391", shape="box"] ;
3 -> 11 ;
12 [label="X[3] <= 1.5000\nentropy = 0.824657833295\nsamples = 174", shape="box"] ;
11 -> 12 ;
13 [label="X[6] <= 2.5000\nentropy = 0.992266638719\nsamples = 29", shape="box"] ;
12 -> 13 ;
14 [label="entropy = 0.8315\nsamples = 19\nvalue = [ 14.   5.]", shape="box"] ;
13 -> 14 ;
15 [label="entropy = 0.7219\nsamples = 10\nvalue = [ 2.  8.]", shape="box"] ;
13 -> 15 ;
16 [label="X[6] <= 3.5000\nentropy = 0.761424795167\nsamples = 145", shape="box"] ;
12 -> 16 ;
17 [label="entropy = 0.7335\nsamples = 136\nvalue = [ 108.   28.]", shape="box"] ;
16 -> 17 ;
18 [label="entropy = 0.9911\nsamples = 9\nvalue = [ 5.  4.]", shape="box"] ;
16 -> 18 ;
19 [label="X[6] <= 1.5000\nentropy = 0.912028508567\nsamples = 217", shape="box"] ;
11 -> 19 ;
20 [label="X[5] <= 2.5000\nentropy = 0.998363672594\nsamples = 42", shape="box"] ;
19 -> 20 ;
21 [label="entropy = 0.8631\nsamples = 7\nvalue = [ 2.  5.]", shape="box"] ;
20 -> 21 ;
22 [label="entropy = 0.9994\nsamples = 35\nvalue = [ 18.  17.]", shape="box"] ;
20 -> 22 ;
23 [label="X[2] <= 4.5000\nentropy = 0.85545081056\nsamples = 175", shape="box"] ;
19 -> 23 ;
24 [label="entropy = 0.8319\nsamples = 167\nvalue = [ 123.   44.]", shape="box"] ;
23 -> 24 ;
25 [label="entropy = 0.9544\nsamples = 8\nvalue = [ 3.  5.]", shape="box"] ;
23 -> 25 ;
26 [label="X[4] <= 0.5000\nentropy = 0.999979805972\nsamples = 189", shape="box"] ;
0 -> 26 ;
27 [label="X[3] <= 2.5000\nentropy = 0.990805074833\nsamples = 133", shape="box"] ;
26 -> 27 ;
28 [label="X[2] <= 1.5000\nentropy = 0.991820797422\nsamples = 47", shape="box"] ;
27 -> 28 ;
29 [label="X[0] <= 0.5000\nentropy = 0.468995593589\nsamples = 10", shape="box"] ;
28 -> 29 ;
30 [label="entropy = 0.7219\nsamples = 5\nvalue = [ 1.  4.]", shape="box"] ;
29 -> 30 ;
31 [label="entropy = 0.0000\nsamples = 5\nvalue = [ 0.  5.]", shape="box"] ;
29 -> 31 ;
32 [label="X[2] <= 4.5000\nentropy = 0.909022156088\nsamples = 37", shape="box"] ;
28 -> 32 ;
33 [label="X[0] <= 1.5000\nentropy = 0.978449329269\nsamples = 29", shape="box"] ;
32 -> 33 ;
34 [label="entropy = 0.8813\nsamples = 10\nvalue = [ 3.  7.]", shape="box"] ;
33 -> 34 ;
35 [label="entropy = 0.8315\nsamples = 19\nvalue = [ 14.   5.]", shape="box"] ;
33 -> 35 ;
36 [label="entropy = 0.0000\nsamples = 8\nvalue = [ 8.  0.]", shape="box"] ;
32 -> 36 ;
37 [label="X[0] <= 1.5000\nentropy = 0.960627661322\nsamples = 86", shape="box"] ;
27 -> 37 ;
38 [label="X[6] <= 1.5000\nentropy = 0.918295834054\nsamples = 12", shape="box"] ;
37 -> 38 ;
39 [label="entropy = 0.9183\nsamples = 6\nvalue = [ 2.  4.]", shape="box"] ;
38 -> 39 ;
40 [label="entropy = 0.0000\nsamples = 6\nvalue = [ 6.  0.]", shape="box"] ;
38 -> 40 ;
41 [label="X[6] <= 3.5000\nentropy = 0.922734620953\nsamples = 74", shape="box"] ;
37 -> 41 ;
42 [label="X[5] <= 2.5000\nentropy = 0.945660304601\nsamples = 66", shape="box"] ;
41 -> 42 ;
43 [label="entropy = 0.9984\nsamples = 21\nvalue = [ 10.  11.]", shape="box"] ;
42 -> 43 ;
44 [label="entropy = 0.8945\nsamples = 45\nvalue = [ 14.  31.]", shape="box"] ;
42 -> 44 ;
45 [label="entropy = 0.5436\nsamples = 8\nvalue = [ 1.  7.]", shape="box"] ;
41 -> 45 ;
46 [label="X[5] <= 2.5000\nentropy = 0.954434002925\nsamples = 56", shape="box"] ;
26 -> 46 ;
47 [label="X[6] <= 1.5000\nentropy = 0.940285958671\nsamples = 14", shape="box"] ;
46 -> 47 ;
48 [label="entropy = 0.9852\nsamples = 7\nvalue = [ 4.  3.]", shape="box"] ;
47 -> 48 ;
49 [label="entropy = 0.5917\nsamples = 7\nvalue = [ 1.  6.]", shape="box"] ;
47 -> 49 ;
50 [label="X[0] <= 2.5000\nentropy = 0.863120568567\nsamples = 42", shape="box"] ;
46 -> 50 ;
51 [label="X[2] <= 2.5000\nentropy = 0.666578357995\nsamples = 23", shape="box"] ;
50 -> 51 ;
52 [label="X[0] <= 1.5000\nentropy = 0.811278124459\nsamples = 12", shape="box"] ;
51 -> 52 ;
53 [label="entropy = 0.9852\nsamples = 7\nvalue = [ 4.  3.]", shape="box"] ;
52 -> 53 ;
54 [label="entropy = 0.0000\nsamples = 5\nvalue = [ 5.  0.]", shape="box"] ;
52 -> 54 ;
55 [label="X[0] <= 1.5000\nentropy = 0.439496986922\nsamples = 11", shape="box"] ;
51 -> 55 ;
56 [label="entropy = 0.0000\nsamples = 6\nvalue = [ 6.  0.]", shape="box"] ;
55 -> 56 ;
57 [label="entropy = 0.7219\nsamples = 5\nvalue = [ 4.  1.]", shape="box"] ;
55 -> 57 ;
58 [label="X[1] <= 4.5000\nentropy = 0.981940786864\nsamples = 19", shape="box"] ;
50 -> 58 ;
59 [label="X[0] <= 3.5000\nentropy = 1.0\nsamples = 14", shape="box"] ;
58 -> 59 ;
60 [label="entropy = 0.9183\nsamples = 9\nvalue = [ 6.  3.]", shape="box"] ;
59 -> 60 ;
61 [label="entropy = 0.7219\nsamples = 5\nvalue = [ 1.  4.]", shape="box"] ;
59 -> 61 ;
62 [label="entropy = 0.7219\nsamples = 5\nvalue = [ 4.  1.]", shape="box"] ;
58 -> 62 ;
}