digraph Tree {
0 [label="X[0] <= 1.5000\nentropy = 0.662484149368\nsamples = 767", shape="box"] ;
1 [label="X[5] <= 1.5000\nentropy = 0.458248907631\nsamples = 238", shape="box"] ;
0 -> 1 ;
2 [label="entropy = 1.0000\nsamples = 6\nvalue = [ 3.  3.]", shape="box"] ;
1 -> 2 ;
3 [label="X[2] <= 2.5000\nentropy = 0.423680571571\nsamples = 232", shape="box"] ;
1 -> 3 ;
4 [label="X[4] <= 0.5000\nentropy = 0.556809796072\nsamples = 131", shape="box"] ;
3 -> 4 ;
5 [label="X[6] <= 3.5000\nentropy = 0.387743181056\nsamples = 79", shape="box"] ;
4 -> 5 ;
6 [label="X[1] <= 3.5000\nentropy = 0.263777436694\nsamples = 67", shape="box"] ;
5 -> 6 ;
7 [label="entropy = 0.1223\nsamples = 60\nvalue = [ 59.   1.]", shape="box"] ;
6 -> 7 ;
8 [label="entropy = 0.8631\nsamples = 7\nvalue = [ 5.  2.]", shape="box"] ;
6 -> 8 ;
9 [label="X[0] <= 0.5000\nentropy = 0.811278124459\nsamples = 12", shape="box"] ;
5 -> 9 ;
10 [label="entropy = 0.9183\nsamples = 6\nvalue = [ 4.  2.]", shape="box"] ;
9 -> 10 ;
11 [label="entropy = 0.6500\nsamples = 6\nvalue = [ 5.  1.]", shape="box"] ;
9 -> 11 ;
12 [label="X[7] <= 1.5000\nentropy = 0.744413179788\nsamples = 52", shape="box"] ;
4 -> 12 ;
13 [label="X[0] <= 0.5000\nentropy = 0.902393282795\nsamples = 22", shape="box"] ;
12 -> 13 ;
14 [label="entropy = 0.9957\nsamples = 13\nvalue = [ 7.  6.]", shape="box"] ;
13 -> 14 ;
15 [label="entropy = 0.5033\nsamples = 9\nvalue = [ 8.  1.]", shape="box"] ;
13 -> 15 ;
16 [label="X[0] <= 0.5000\nentropy = 0.566509506553\nsamples = 30", shape="box"] ;
12 -> 16 ;
17 [label="entropy = 0.0000\nsamples = 13\nvalue = [ 13.   0.]", shape="box"] ;
16 -> 17 ;
18 [label="entropy = 0.7871\nsamples = 17\nvalue = [ 13.   4.]", shape="box"] ;
16 -> 18 ;
19 [label="X[5] <= 2.5000\nentropy = 0.192900074579\nsamples = 101", shape="box"] ;
3 -> 19 ;
20 [label="X[3] <= 1.5000\nentropy = 0.453716339187\nsamples = 21", shape="box"] ;
19 -> 20 ;
21 [label="entropy = 0.7642\nsamples = 9\nvalue = [ 7.  2.]", shape="box"] ;
20 -> 21 ;
22 [label="entropy = 0.0000\nsamples = 12\nvalue = [ 12.   0.]", shape="box"] ;
20 -> 22 ;
23 [label="X[0] <= 0.5000\nentropy = 0.0969446060625\nsamples = 80", shape="box"] ;
19 -> 23 ;
24 [label="entropy = 0.0000\nsamples = 52\nvalue = [ 52.   0.]", shape="box"] ;
23 -> 24 ;
25 [label="X[7] <= 1.5000\nentropy = 0.222284830686\nsamples = 28", shape="box"] ;
23 -> 25 ;
26 [label="entropy = 0.4138\nsamples = 12\nvalue = [ 11.   1.]", shape="box"] ;
25 -> 26 ;
27 [label="entropy = 0.0000\nsamples = 16\nvalue = [ 16.   0.]", shape="box"] ;
25 -> 27 ;
28 [label="X[5] <= 3.5000\nentropy = 0.733862647803\nsamples = 529", shape="box"] ;
0 -> 28 ;
29 [label="X[2] <= 2.5000\nentropy = 0.776116265619\nsamples = 415", shape="box"] ;
28 -> 29 ;
30 [label="X[4] <= 0.5000\nentropy = 0.695685204186\nsamples = 251", shape="box"] ;
29 -> 30 ;
31 [label="X[7] <= 1.5000\nentropy = 0.608988459171\nsamples = 147", shape="box"] ;
30 -> 31 ;
32 [label="X[1] <= 1.5000\nentropy = 0.468995593589\nsamples = 70", shape="box"] ;
31 -> 32 ;
33 [label="entropy = 0.8113\nsamples = 12\nvalue = [ 9.  3.]", shape="box"] ;
32 -> 33 ;
34 [label="entropy = 0.3621\nsamples = 58\nvalue = [ 54.   4.]", shape="box"] ;
32 -> 34 ;
35 [label="X[6] <= 3.5000\nentropy = 0.711416018901\nsamples = 77", shape="box"] ;
31 -> 35 ;
36 [label="entropy = 0.7973\nsamples = 58\nvalue = [ 44.  14.]", shape="box"] ;
35 -> 36 ;
37 [label="entropy = 0.2975\nsamples = 19\nvalue = [ 18.   1.]", shape="box"] ;
35 -> 37 ;
38 [label="X[2] <= 1.5000\nentropy = 0.795679296503\nsamples = 104", shape="box"] ;
30 -> 38 ;
39 [label="X[3] <= 2.5000\nentropy = 0.950956048455\nsamples = 27", shape="box"] ;
38 -> 39 ;
40 [label="entropy = 0.5033\nsamples = 9\nvalue = [ 8.  1.]", shape="box"] ;
39 -> 40 ;
41 [label="entropy = 1.0000\nsamples = 18\nvalue = [ 9.  9.]", shape="box"] ;
39 -> 41 ;
42 [label="X[6] <= 2.5000\nentropy = 0.711416018901\nsamples = 77", shape="box"] ;
38 -> 42 ;
43 [label="entropy = 0.8757\nsamples = 44\nvalue = [ 31.  13.]", shape="box"] ;
42 -> 43 ;
44 [label="entropy = 0.3298\nsamples = 33\nvalue = [ 31.   2.]", shape="box"] ;
42 -> 44 ;
45 [label="X[3] <= 1.5000\nentropy = 0.872161788341\nsamples = 164", shape="box"] ;
29 -> 45 ;
46 [label="X[5] <= 2.5000\nentropy = 0.998635964159\nsamples = 23", shape="box"] ;
45 -> 46 ;
47 [label="X[0] <= 2.5000\nentropy = 0.940285958671\nsamples = 14", shape="box"] ;
46 -> 47 ;
48 [label="entropy = 0.9852\nsamples = 7\nvalue = [ 4.  3.]", shape="box"] ;
47 -> 48 ;
49 [label="entropy = 0.8631\nsamples = 7\nvalue = [ 5.  2.]", shape="box"] ;
47 -> 49 ;
50 [label="entropy = 0.9183\nsamples = 9\nvalue = [ 3.  6.]", shape="box"] ;
46 -> 50 ;
51 [label="X[1] <= 2.5000\nentropy = 0.830363372151\nsamples = 141", shape="box"] ;
45 -> 51 ;
52 [label="X[0] <= 3.5000\nentropy = 0.752626956443\nsamples = 88", shape="box"] ;
51 -> 52 ;
53 [label="entropy = 0.6429\nsamples = 55\nvalue = [ 46.   9.]", shape="box"] ;
52 -> 53 ;
54 [label="entropy = 0.8850\nsamples = 33\nvalue = [ 23.  10.]", shape="box"] ;
52 -> 54 ;
55 [label="X[1] <= 4.5000\nentropy = 0.924457140996\nsamples = 53", shape="box"] ;
51 -> 55 ;
56 [label="entropy = 0.9940\nsamples = 33\nvalue = [ 18.  15.]", shape="box"] ;
55 -> 56 ;
57 [label="entropy = 0.6098\nsamples = 20\nvalue = [ 17.   3.]", shape="box"] ;
55 -> 57 ;
58 [label="X[1] <= 1.5000\nentropy = 0.537376085338\nsamples = 114", shape="box"] ;
28 -> 58 ;
59 [label="X[0] <= 2.5000\nentropy = 0.970950594455\nsamples = 15", shape="box"] ;
58 -> 59 ;
60 [label="entropy = 0.5436\nsamples = 8\nvalue = [ 7.  1.]", shape="box"] ;
59 -> 60 ;
61 [label="entropy = 0.8631\nsamples = 7\nvalue = [ 2.  5.]", shape="box"] ;
59 -> 61 ;
62 [label="X[6] <= 1.5000\nentropy = 0.405020132624\nsamples = 99", shape="box"] ;
58 -> 62 ;
63 [label="X[0] <= 3.5000\nentropy = 0.583019416735\nsamples = 43", shape="box"] ;
62 -> 63 ;
64 [label="X[2] <= 3.5000\nentropy = 0.696212260125\nsamples = 32", shape="box"] ;
63 -> 64 ;
65 [label="entropy = 0.7642\nsamples = 27\nvalue = [ 21.   6.]", shape="box"] ;
64 -> 65 ;
66 [label="entropy = 0.0000\nsamples = 5\nvalue = [ 5.  0.]", shape="box"] ;
64 -> 66 ;
67 [label="entropy = 0.0000\nsamples = 11\nvalue = [ 11.   0.]", shape="box"] ;
63 -> 67 ;
68 [label="X[5] <= 4.5000\nentropy = 0.222284830686\nsamples = 56", shape="box"] ;
62 -> 68 ;
69 [label="entropy = 0.0000\nsamples = 45\nvalue = [ 45.   0.]", shape="box"] ;
68 -> 69 ;
70 [label="X[0] <= 2.5000\nentropy = 0.684038435639\nsamples = 11", shape="box"] ;
68 -> 70 ;
71 [label="entropy = 0.0000\nsamples = 6\nvalue = [ 6.  0.]", shape="box"] ;
70 -> 71 ;
72 [label="entropy = 0.9710\nsamples = 5\nvalue = [ 3.  2.]", shape="box"] ;
70 -> 72 ;
}