digraph Tree {
0 [label="X[0] <= 1.5000\nentropy = 0.921307993641\nsamples = 767", shape="box"] ;
1 [label="X[6] <= 2.5000\nentropy = 0.995869996553\nsamples = 238", shape="box"] ;
0 -> 1 ;
2 [label="X[4] <= 0.5000\nentropy = 0.967432098153\nsamples = 137", shape="box"] ;
1 -> 2 ;
3 [label="X[1] <= 2.5000\nentropy = 0.991501786686\nsamples = 83", shape="box"] ;
2 -> 3 ;
4 [label="X[5] <= 2.5000\nentropy = 0.999079718181\nsamples = 56", shape="box"] ;
3 -> 4 ;
5 [label="X[7] <= 1.5000\nentropy = 0.934068055375\nsamples = 20", shape="box"] ;
4 -> 5 ;
6 [label="entropy = 0.7793\nsamples = 13\nvalue = [ 10.   3.]", shape="box"] ;
5 -> 6 ;
7 [label="entropy = 0.9852\nsamples = 7\nvalue = [ 3.  4.]", shape="box"] ;
5 -> 7 ;
8 [label="X[2] <= 3.5000\nentropy = 0.991076059838\nsamples = 36", shape="box"] ;
4 -> 8 ;
9 [label="entropy = 0.9576\nsamples = 29\nvalue = [ 11.  18.]", shape="box"] ;
8 -> 9 ;
10 [label="entropy = 0.8631\nsamples = 7\nvalue = [ 5.  2.]", shape="box"] ;
8 -> 10 ;
11 [label="X[2] <= 1.5000\nentropy = 0.876716288999\nsamples = 27", shape="box"] ;
3 -> 11 ;
12 [label="entropy = 0.9183\nsamples = 6\nvalue = [ 4.  2.]", shape="box"] ;
11 -> 12 ;
13 [label="X[3] <= 1.5000\nentropy = 0.70246655129\nsamples = 21", shape="box"] ;
11 -> 13 ;
14 [label="entropy = 0.0000\nsamples = 9\nvalue = [ 0.  9.]", shape="box"] ;
13 -> 14 ;
15 [label="entropy = 0.9183\nsamples = 12\nvalue = [ 4.  8.]", shape="box"] ;
13 -> 15 ;
16 [label="X[2] <= 3.5000\nentropy = 0.898653375691\nsamples = 54", shape="box"] ;
2 -> 16 ;
17 [label="X[3] <= 1.5000\nentropy = 0.842657877202\nsamples = 48", shape="box"] ;
16 -> 17 ;
18 [label="X[2] <= 2.5000\nentropy = 0.672294817076\nsamples = 17", shape="box"] ;
17 -> 18 ;
19 [label="entropy = 0.8113\nsamples = 12\nvalue = [ 3.  9.]", shape="box"] ;
18 -> 19 ;
20 [label="entropy = 0.0000\nsamples = 5\nvalue = [ 0.  5.]", shape="box"] ;
18 -> 20 ;
21 [label="X[2] <= 1.5000\nentropy = 0.907165767573\nsamples = 31", shape="box"] ;
17 -> 21 ;
22 [label="entropy = 0.5917\nsamples = 7\nvalue = [ 1.  6.]", shape="box"] ;
21 -> 22 ;
23 [label="entropy = 0.9544\nsamples = 24\nvalue = [  9.  15.]", shape="box"] ;
21 -> 23 ;
24 [label="entropy = 0.9183\nsamples = 6\nvalue = [ 4.  2.]", shape="box"] ;
16 -> 24 ;
25 [label="X[2] <= 2.5000\nentropy = 0.991426681068\nsamples = 101", shape="box"] ;
1 -> 25 ;
26 [label="X[6] <= 3.5000\nentropy = 0.989093439702\nsamples = 57", shape="box"] ;
25 -> 26 ;
27 [label="X[3] <= 2.5000\nentropy = 0.999473020186\nsamples = 37", shape="box"] ;
26 -> 27 ;
28 [label="X[3] <= 1.5000\nentropy = 0.975119064941\nsamples = 27", shape="box"] ;
27 -> 28 ;
29 [label="entropy = 0.9984\nsamples = 21\nvalue = [ 10.  11.]", shape="box"] ;
28 -> 29 ;
30 [label="entropy = 0.6500\nsamples = 6\nvalue = [ 1.  5.]", shape="box"] ;
28 -> 30 ;
31 [label="entropy = 0.7219\nsamples = 10\nvalue = [ 8.  2.]", shape="box"] ;
27 -> 31 ;
32 [label="X[3] <= 2.5000\nentropy = 0.881290899231\nsamples = 20", shape="box"] ;
26 -> 32 ;
33 [label="entropy = 0.9940\nsamples = 11\nvalue = [ 5.  6.]", shape="box"] ;
32 -> 33 ;
34 [label="entropy = 0.5033\nsamples = 9\nvalue = [ 1.  8.]", shape="box"] ;
32 -> 34 ;
35 [label="X[7] <= 1.5000\nentropy = 0.875663392323\nsamples = 44", shape="box"] ;
25 -> 35 ;
36 [label="X[2] <= 4.5000\nentropy = 0.985228136034\nsamples = 14", shape="box"] ;
35 -> 36 ;
37 [label="entropy = 0.9183\nsamples = 9\nvalue = [ 6.  3.]", shape="box"] ;
36 -> 37 ;
38 [label="entropy = 0.0000\nsamples = 5\nvalue = [ 0.  5.]", shape="box"] ;
36 -> 38 ;
39 [label="X[3] <= 1.5000\nentropy = 0.650022421648\nsamples = 30", shape="box"] ;
35 -> 39 ;
40 [label="X[1] <= 1.5000\nentropy = 0.873981048127\nsamples = 17", shape="box"] ;
39 -> 40 ;
41 [label="entropy = 0.5917\nsamples = 7\nvalue = [ 6.  1.]", shape="box"] ;
40 -> 41 ;
42 [label="entropy = 0.9710\nsamples = 10\nvalue = [ 6.  4.]", shape="box"] ;
40 -> 42 ;
43 [label="entropy = 0.0000\nsamples = 13\nvalue = [ 13.   0.]", shape="box"] ;
39 -> 43 ;
44 [label="X[7] <= 1.5000\nentropy = 0.855141536787\nsamples = 529", shape="box"] ;
0 -> 44 ;
45 [label="X[2] <= 3.5000\nentropy = 0.91286991904\nsamples = 250", shape="box"] ;
44 -> 45 ;
46 [label="X[3] <= 2.5000\nentropy = 0.884251941441\nsamples = 205", shape="box"] ;
45 -> 46 ;
47 [label="X[2] <= 2.5000\nentropy = 0.948980458563\nsamples = 87", shape="box"] ;
46 -> 47 ;
48 [label="X[5] <= 5.0000\nentropy = 0.89181075438\nsamples = 68", shape="box"] ;
47 -> 48 ;
49 [label="entropy = 0.8474\nsamples = 62\nvalue = [ 17.  45.]", shape="box"] ;
48 -> 49 ;
50 [label="entropy = 0.9183\nsamples = 6\nvalue = [ 4.  2.]", shape="box"] ;
48 -> 50 ;
51 [label="X[6] <= 2.5000\nentropy = 0.981940786864\nsamples = 19", shape="box"] ;
47 -> 51 ;
52 [label="entropy = 0.9852\nsamples = 14\nvalue = [ 6.  8.]", shape="box"] ;
51 -> 52 ;
53 [label="entropy = 0.0000\nsamples = 5\nvalue = [ 5.  0.]", shape="box"] ;
51 -> 53 ;
54 [label="X[1] <= 3.5000\nentropy = 0.817925250139\nsamples = 118", shape="box"] ;
46 -> 54 ;
55 [label="X[6] <= 3.5000\nentropy = 0.872475205485\nsamples = 99", shape="box"] ;
54 -> 55 ;
56 [label="entropy = 0.8953\nsamples = 93\nvalue = [ 29.  64.]", shape="box"] ;
55 -> 56 ;
57 [label="entropy = 0.0000\nsamples = 6\nvalue = [ 0.  6.]", shape="box"] ;
55 -> 57 ;
58 [label="X[4] <= 0.5000\nentropy = 0.297472248919\nsamples = 19", shape="box"] ;
54 -> 58 ;
59 [label="entropy = 0.0000\nsamples = 14\nvalue = [  0.  14.]", shape="box"] ;
58 -> 59 ;
60 [label="entropy = 0.7219\nsamples = 5\nvalue = [ 1.  4.]", shape="box"] ;
58 -> 60 ;
61 [label="X[3] <= 2.5000\nentropy = 0.991076059838\nsamples = 45", shape="box"] ;
45 -> 61 ;
62 [label="X[6] <= 1.5000\nentropy = 0.721928094887\nsamples = 10", shape="box"] ;
61 -> 62 ;
63 [label="entropy = 0.0000\nsamples = 5\nvalue = [ 0.  5.]", shape="box"] ;
62 -> 63 ;
64 [label="entropy = 0.9710\nsamples = 5\nvalue = [ 2.  3.]", shape="box"] ;
62 -> 64 ;
65 [label="X[1] <= 4.5000\nentropy = 0.999411064739\nsamples = 35", shape="box"] ;
61 -> 65 ;
66 [label="X[2] <= 4.5000\nentropy = 0.994984828186\nsamples = 24", shape="box"] ;
65 -> 66 ;
67 [label="entropy = 0.9852\nsamples = 14\nvalue = [ 8.  6.]", shape="box"] ;
66 -> 67 ;
68 [label="entropy = 0.8813\nsamples = 10\nvalue = [ 3.  7.]", shape="box"] ;
66 -> 68 ;
69 [label="X[0] <= 3.5000\nentropy = 0.945660304601\nsamples = 11", shape="box"] ;
65 -> 69 ;
70 [label="entropy = 1.0000\nsamples = 6\nvalue = [ 3.  3.]", shape="box"] ;
69 -> 70 ;
71 [label="entropy = 0.7219\nsamples = 5\nvalue = [ 4.  1.]", shape="box"] ;
69 -> 71 ;
72 [label="X[2] <= 4.5000\nentropy = 0.789271272454\nsamples = 279", shape="box"] ;
44 -> 72 ;
73 [label="X[1] <= 3.5000\nentropy = 0.811278124459\nsamples = 260", shape="box"] ;
72 -> 73 ;
74 [label="X[2] <= 3.5000\nentropy = 0.778768457655\nsamples = 230", shape="box"] ;
73 -> 74 ;
75 [label="X[1] <= 1.5000\nentropy = 0.802019836826\nsamples = 217", shape="box"] ;
74 -> 75 ;
76 [label="entropy = 0.9940\nsamples = 11\nvalue = [ 5.  6.]", shape="box"] ;
75 -> 76 ;
77 [label="entropy = 0.7832\nsamples = 206\nvalue = [  48.  158.]", shape="box"] ;
75 -> 77 ;
78 [label="entropy = 0.0000\nsamples = 13\nvalue = [  0.  13.]", shape="box"] ;
74 -> 78 ;
79 [label="X[1] <= 4.5000\nentropy = 0.970950594455\nsamples = 30", shape="box"] ;
73 -> 79 ;
80 [label="X[0] <= 2.5000\nentropy = 1.0\nsamples = 20", shape="box"] ;
79 -> 80 ;
81 [label="entropy = 0.8454\nsamples = 11\nvalue = [ 3.  8.]", shape="box"] ;
80 -> 81 ;
82 [label="entropy = 0.7642\nsamples = 9\nvalue = [ 7.  2.]", shape="box"] ;
80 -> 82 ;
83 [label="X[6] <= 2.5000\nentropy = 0.721928094887\nsamples = 10", shape="box"] ;
79 -> 83 ;
84 [label="entropy = 0.7219\nsamples = 5\nvalue = [ 1.  4.]", shape="box"] ;
83 -> 84 ;
85 [label="entropy = 0.7219\nsamples = 5\nvalue = [ 1.  4.]", shape="box"] ;
83 -> 85 ;
86 [label="X[5] <= 3.5000\nentropy = 0.297472248919\nsamples = 19", shape="box"] ;
72 -> 86 ;
87 [label="entropy = 0.0000\nsamples = 13\nvalue = [  0.  13.]", shape="box"] ;
86 -> 87 ;
88 [label="entropy = 0.6500\nsamples = 6\nvalue = [ 1.  5.]", shape="box"] ;
86 -> 88 ;
}