digraph Tree {
0 [label="X[0] <= 1.5000\nentropy = 0.632059095882\nsamples = 767", shape="box"] ;
1 [label="X[5] <= 1.5000\nentropy = 0.497630498438\nsamples = 238", shape="box"] ;
0 -> 1 ;
2 [label="entropy = 1.0000\nsamples = 6\nvalue = [ 3.  3.]", shape="box"] ;
1 -> 2 ;
3 [label="X[5] <= 2.5000\nentropy = 0.466256927911\nsamples = 232", shape="box"] ;
1 -> 3 ;
4 [label="X[4] <= 0.5000\nentropy = 0.125658050173\nsamples = 58", shape="box"] ;
3 -> 4 ;
5 [label="entropy = 0.0000\nsamples = 42\nvalue = [ 42.   0.]", shape="box"] ;
4 -> 5 ;
6 [label="X[3] <= 1.5000\nentropy = 0.337290066617\nsamples = 16", shape="box"] ;
4 -> 6 ;
7 [label="entropy = 0.6500\nsamples = 6\nvalue = [ 5.  1.]", shape="box"] ;
6 -> 7 ;
8 [label="entropy = 0.0000\nsamples = 10\nvalue = [ 10.   0.]", shape="box"] ;
6 -> 8 ;
9 [label="X[1] <= 4.5000\nentropy = 0.547584428875\nsamples = 174", shape="box"] ;
3 -> 9 ;
10 [label="X[6] <= 2.5000\nentropy = 0.51119099386\nsamples = 167", shape="box"] ;
9 -> 10 ;
11 [label="X[6] <= 1.5000\nentropy = 0.615253891056\nsamples = 92", shape="box"] ;
10 -> 11 ;
12 [label="entropy = 0.2714\nsamples = 43\nvalue = [ 41.   2.]", shape="box"] ;
11 -> 12 ;
13 [label="entropy = 0.8031\nsamples = 49\nvalue = [ 37.  12.]", shape="box"] ;
11 -> 13 ;
14 [label="X[3] <= 2.5000\nentropy = 0.353359335021\nsamples = 75", shape="box"] ;
10 -> 14 ;
15 [label="entropy = 0.4567\nsamples = 52\nvalue = [ 47.   5.]", shape="box"] ;
14 -> 15 ;
16 [label="entropy = 0.0000\nsamples = 23\nvalue = [ 23.   0.]", shape="box"] ;
14 -> 16 ;
17 [label="entropy = 0.9852\nsamples = 7\nvalue = [ 4.  3.]", shape="box"] ;
9 -> 17 ;
18 [label="X[5] <= 4.5000\nentropy = 0.683292055695\nsamples = 529", shape="box"] ;
0 -> 18 ;
19 [label="X[2] <= 4.5000\nentropy = 0.703256361842\nsamples = 503", shape="box"] ;
18 -> 19 ;
20 [label="X[2] <= 3.5000\nentropy = 0.679795899473\nsamples = 467", shape="box"] ;
19 -> 20 ;
21 [label="X[7] <= 1.5000\nentropy = 0.70152114661\nsamples = 421", shape="box"] ;
20 -> 21 ;
22 [label="X[0] <= 2.5000\nentropy = 0.761102793259\nsamples = 195", shape="box"] ;
21 -> 22 ;
23 [label="entropy = 0.8797\nsamples = 77\nvalue = [ 54.  23.]", shape="box"] ;
22 -> 23 ;
24 [label="entropy = 0.6565\nsamples = 118\nvalue = [ 98.  20.]", shape="box"] ;
22 -> 24 ;
25 [label="X[1] <= 2.5000\nentropy = 0.643127667256\nsamples = 226", shape="box"] ;
21 -> 25 ;
26 [label="entropy = 0.6851\nsamples = 192\nvalue = [ 157.   35.]", shape="box"] ;
25 -> 26 ;
27 [label="entropy = 0.3228\nsamples = 34\nvalue = [ 32.   2.]", shape="box"] ;
25 -> 27 ;
28 [label="X[1] <= 3.5000\nentropy = 0.426228656998\nsamples = 46", shape="box"] ;
20 -> 28 ;
29 [label="X[5] <= 2.5000\nentropy = 0.578794624632\nsamples = 29", shape="box"] ;
28 -> 29 ;
30 [label="entropy = 0.9183\nsamples = 9\nvalue = [ 6.  3.]", shape="box"] ;
29 -> 30 ;
31 [label="entropy = 0.2864\nsamples = 20\nvalue = [ 19.   1.]", shape="box"] ;
29 -> 31 ;
32 [label="entropy = 0.0000\nsamples = 17\nvalue = [ 17.   0.]", shape="box"] ;
28 -> 32 ;
33 [label="X[6] <= 1.5000\nentropy = 0.918295834054\nsamples = 36", shape="box"] ;
19 -> 33 ;
34 [label="entropy = 0.5436\nsamples = 8\nvalue = [ 7.  1.]", shape="box"] ;
33 -> 34 ;
35 [label="X[5] <= 2.5000\nentropy = 0.966618632548\nsamples = 28", shape="box"] ;
33 -> 35 ;
36 [label="entropy = 0.9544\nsamples = 8\nvalue = [ 3.  5.]", shape="box"] ;
35 -> 36 ;
37 [label="X[6] <= 2.5000\nentropy = 0.881290899231\nsamples = 20", shape="box"] ;
35 -> 37 ;
38 [label="entropy = 0.4690\nsamples = 10\nvalue = [ 9.  1.]", shape="box"] ;
37 -> 38 ;
39 [label="entropy = 1.0000\nsamples = 10\nvalue = [ 5.  5.]", shape="box"] ;
37 -> 39 ;
40 [label="entropy = 0.0000\nsamples = 26\nvalue = [ 26.   0.]", shape="box"] ;
18 -> 40 ;
}