digraph Tree {
0 [label="X[0] <= 1.5000\nentropy = 0.997731606197\nsamples = 767", shape="box"] ;
1 [label="X[1] <= 2.5000\nentropy = 0.899002255212\nsamples = 238", shape="box"] ;
0 -> 1 ;
2 [label="X[5] <= 4.5000\nentropy = 0.849491493155\nsamples = 185", shape="box"] ;
1 -> 2 ;
3 [label="X[4] <= 0.5000\nentropy = 0.866300675498\nsamples = 177", shape="box"] ;
2 -> 3 ;
4 [label="X[1] <= 1.5000\nentropy = 0.930255904958\nsamples = 107", shape="box"] ;
3 -> 4 ;
5 [label="X[7] <= 1.5000\nentropy = 0.994030211477\nsamples = 22", shape="box"] ;
4 -> 5 ;
6 [label="entropy = 0.0000\nsamples = 8\nvalue = [ 8.  0.]", shape="box"] ;
5 -> 6 ;
7 [label="entropy = 0.8631\nsamples = 14\nvalue = [  4.  10.]", shape="box"] ;
5 -> 7 ;
8 [label="X[7] <= 1.5000\nentropy = 0.901804344658\nsamples = 85", shape="box"] ;
4 -> 8 ;
9 [label="entropy = 0.9710\nsamples = 40\nvalue = [ 24.  16.]", shape="box"] ;
8 -> 9 ;
10 [label="entropy = 0.8024\nsamples = 45\nvalue = [ 34.  11.]", shape="box"] ;
8 -> 10 ;
11 [label="X[0] <= 0.5000\nentropy = 0.721928094887\nsamples = 70", shape="box"] ;
3 -> 11 ;
12 [label="X[6] <= 1.5000\nentropy = 0.872161788341\nsamples = 41", shape="box"] ;
11 -> 12 ;
13 [label="entropy = 0.9940\nsamples = 11\nvalue = [ 6.  5.]", shape="box"] ;
12 -> 13 ;
14 [label="entropy = 0.7838\nsamples = 30\nvalue = [ 23.   7.]", shape="box"] ;
12 -> 14 ;
15 [label="X[3] <= 2.5000\nentropy = 0.362051251734\nsamples = 29", shape="box"] ;
11 -> 15 ;
16 [label="entropy = 0.0000\nsamples = 18\nvalue = [ 18.   0.]", shape="box"] ;
15 -> 16 ;
17 [label="entropy = 0.6840\nsamples = 11\nvalue = [ 9.  2.]", shape="box"] ;
15 -> 17 ;
18 [label="entropy = 0.0000\nsamples = 8\nvalue = [ 8.  0.]", shape="box"] ;
2 -> 18 ;
19 [label="X[3] <= 1.5000\nentropy = 0.993570475771\nsamples = 53", shape="box"] ;
1 -> 19 ;
20 [label="X[2] <= 4.5000\nentropy = 0.954434002925\nsamples = 24", shape="box"] ;
19 -> 20 ;
21 [label="X[2] <= 1.5000\nentropy = 0.83147438801\nsamples = 19", shape="box"] ;
20 -> 21 ;
22 [label="entropy = 0.9911\nsamples = 9\nvalue = [ 4.  5.]", shape="box"] ;
21 -> 22 ;
23 [label="X[0] <= 0.5000\nentropy = 0.468995593589\nsamples = 10", shape="box"] ;
21 -> 23 ;
24 [label="entropy = 0.0000\nsamples = 5\nvalue = [ 0.  5.]", shape="box"] ;
23 -> 24 ;
25 [label="entropy = 0.7219\nsamples = 5\nvalue = [ 1.  4.]", shape="box"] ;
23 -> 25 ;
26 [label="entropy = 0.7219\nsamples = 5\nvalue = [ 4.  1.]", shape="box"] ;
20 -> 26 ;
27 [label="X[7] <= 1.5000\nentropy = 0.893571101654\nsamples = 29", shape="box"] ;
19 -> 27 ;
28 [label="X[3] <= 2.5000\nentropy = 0.749595257259\nsamples = 14", shape="box"] ;
27 -> 28 ;
29 [label="entropy = 0.9544\nsamples = 8\nvalue = [ 5.  3.]", shape="box"] ;
28 -> 29 ;
30 [label="entropy = 0.0000\nsamples = 6\nvalue = [ 6.  0.]", shape="box"] ;
28 -> 30 ;
31 [label="X[6] <= 1.5000\nentropy = 0.970950594455\nsamples = 15", shape="box"] ;
27 -> 31 ;
32 [label="entropy = 0.5917\nsamples = 7\nvalue = [ 6.  1.]", shape="box"] ;
31 -> 32 ;
33 [label="entropy = 0.9544\nsamples = 8\nvalue = [ 3.  5.]", shape="box"] ;
31 -> 33 ;
34 [label="X[0] <= 3.5000\nentropy = 0.994773833898\nsamples = 529", shape="box"] ;
0 -> 34 ;
35 [label="X[7] <= 1.5000\nentropy = 0.999686892487\nsamples = 384", shape="box"] ;
34 -> 35 ;
36 [label="X[5] <= 3.5000\nentropy = 0.989197324863\nsamples = 180", shape="box"] ;
35 -> 36 ;
37 [label="X[1] <= 2.5000\nentropy = 0.97338543523\nsamples = 141", shape="box"] ;
36 -> 37 ;
38 [label="X[4] <= 0.5000\nentropy = 0.931304368579\nsamples = 98", shape="box"] ;
37 -> 38 ;
39 [label="entropy = 0.9852\nsamples = 63\nvalue = [ 27.  36.]", shape="box"] ;
38 -> 39 ;
40 [label="entropy = 0.7219\nsamples = 35\nvalue = [  7.  28.]", shape="box"] ;
38 -> 40 ;
41 [label="X[1] <= 4.5000\nentropy = 0.996485989887\nsamples = 43", shape="box"] ;
37 -> 41 ;
42 [label="entropy = 0.9673\nsamples = 33\nvalue = [ 20.  13.]", shape="box"] ;
41 -> 42 ;
43 [label="entropy = 0.8813\nsamples = 10\nvalue = [ 3.  7.]", shape="box"] ;
41 -> 43 ;
44 [label="X[1] <= 1.5000\nentropy = 0.988110836522\nsamples = 39", shape="box"] ;
36 -> 44 ;
45 [label="entropy = 0.5917\nsamples = 7\nvalue = [ 6.  1.]", shape="box"] ;
44 -> 45 ;
46 [label="X[4] <= 0.5000\nentropy = 1.0\nsamples = 32", shape="box"] ;
44 -> 46 ;
47 [label="entropy = 0.8813\nsamples = 10\nvalue = [ 3.  7.]", shape="box"] ;
46 -> 47 ;
48 [label="entropy = 0.9760\nsamples = 22\nvalue = [ 13.   9.]", shape="box"] ;
46 -> 48 ;
49 [label="X[6] <= 1.5000\nentropy = 0.984343203098\nsamples = 204", shape="box"] ;
35 -> 49 ;
50 [label="X[2] <= 1.5000\nentropy = 0.994030211477\nsamples = 44", shape="box"] ;
49 -> 50 ;
51 [label="entropy = 0.6500\nsamples = 6\nvalue = [ 5.  1.]", shape="box"] ;
50 -> 51 ;
52 [label="X[4] <= 0.5000\nentropy = 0.967788462827\nsamples = 38", shape="box"] ;
50 -> 52 ;
53 [label="entropy = 1.0000\nsamples = 22\nvalue = [ 11.  11.]", shape="box"] ;
52 -> 53 ;
54 [label="entropy = 0.8113\nsamples = 16\nvalue = [  4.  12.]", shape="box"] ;
52 -> 54 ;
55 [label="X[5] <= 4.5000\nentropy = 0.967176964433\nsamples = 160", shape="box"] ;
49 -> 55 ;
56 [label="X[1] <= 2.5000\nentropy = 0.958496405393\nsamples = 155", shape="box"] ;
55 -> 56 ;
57 [label="entropy = 0.9388\nsamples = 121\nvalue = [ 78.  43.]", shape="box"] ;
56 -> 57 ;
58 [label="entropy = 0.9975\nsamples = 34\nvalue = [ 18.  16.]", shape="box"] ;
56 -> 58 ;
59 [label="entropy = 0.7219\nsamples = 5\nvalue = [ 1.  4.]", shape="box"] ;
55 -> 59 ;
60 [label="X[1] <= 3.5000\nentropy = 0.901356294384\nsamples = 145", shape="box"] ;
34 -> 60 ;
61 [label="X[4] <= 0.5000\nentropy = 0.939254720731\nsamples = 118", shape="box"] ;
60 -> 61 ;
62 [label="X[5] <= 2.5000\nentropy = 0.885883479048\nsamples = 79", shape="box"] ;
61 -> 62 ;
63 [label="X[6] <= 1.5000\nentropy = 0.503258334776\nsamples = 18", shape="box"] ;
62 -> 63 ;
64 [label="entropy = 0.0000\nsamples = 7\nvalue = [ 0.  7.]", shape="box"] ;
63 -> 64 ;
65 [label="entropy = 0.6840\nsamples = 11\nvalue = [ 2.  9.]", shape="box"] ;
63 -> 65 ;
66 [label="X[1] <= 2.5000\nentropy = 0.943226154847\nsamples = 61", shape="box"] ;
62 -> 66 ;
67 [label="entropy = 0.8974\nsamples = 51\nvalue = [ 16.  35.]", shape="box"] ;
66 -> 67 ;
68 [label="entropy = 0.9710\nsamples = 10\nvalue = [ 6.  4.]", shape="box"] ;
66 -> 68 ;
69 [label="X[2] <= 3.5000\nentropy = 0.995727452085\nsamples = 39", shape="box"] ;
61 -> 69 ;
70 [label="X[7] <= 1.5000\nentropy = 0.967294778947\nsamples = 33", shape="box"] ;
69 -> 70 ;
71 [label="entropy = 0.8113\nsamples = 12\nvalue = [ 3.  9.]", shape="box"] ;
70 -> 71 ;
72 [label="entropy = 0.9984\nsamples = 21\nvalue = [ 10.  11.]", shape="box"] ;
70 -> 72 ;
73 [label="entropy = 0.6500\nsamples = 6\nvalue = [ 5.  1.]", shape="box"] ;
69 -> 73 ;
74 [label="X[7] <= 1.5000\nentropy = 0.605186576633\nsamples = 27", shape="box"] ;
60 -> 74 ;
75 [label="X[2] <= 2.5000\nentropy = 0.297472248919\nsamples = 19", shape="box"] ;
74 -> 75 ;
76 [label="entropy = 0.6500\nsamples = 6\nvalue = [ 1.  5.]", shape="box"] ;
75 -> 76 ;
77 [label="entropy = 0.0000\nsamples = 13\nvalue = [  0.  13.]", shape="box"] ;
75 -> 77 ;
78 [label="entropy = 0.9544\nsamples = 8\nvalue = [ 3.  5.]", shape="box"] ;
74 -> 78 ;
}