digraph Tree {
0 [label="X[0] <= 0.5000\nentropy = 0.765511426902\nsamples = 767", shape="box"] ;
1 [label="X[2] <= 4.5000\nentropy = 0.950337669971\nsamples = 138", shape="box"] ;
0 -> 1 ;
2 [label="X[1] <= 2.5000\nentropy = 0.934068055375\nsamples = 120", shape="box"] ;
1 -> 2 ;
3 [label="X[6] <= 1.5000\nentropy = 0.900341870823\nsamples = 98", shape="box"] ;
2 -> 3 ;
4 [label="X[3] <= 2.5000\nentropy = 0.995727452085\nsamples = 26", shape="box"] ;
3 -> 4 ;
5 [label="X[4] <= 0.5000\nentropy = 0.836640741941\nsamples = 15", shape="box"] ;
4 -> 5 ;
6 [label="entropy = 0.9710\nsamples = 10\nvalue = [ 6.  4.]", shape="box"] ;
5 -> 6 ;
7 [label="entropy = 0.0000\nsamples = 5\nvalue = [ 5.  0.]", shape="box"] ;
5 -> 7 ;
8 [label="X[7] <= 1.5000\nentropy = 0.845350936622\nsamples = 11", shape="box"] ;
4 -> 8 ;
9 [label="entropy = 0.9710\nsamples = 5\nvalue = [ 2.  3.]", shape="box"] ;
8 -> 9 ;
10 [label="entropy = 0.6500\nsamples = 6\nvalue = [ 1.  5.]", shape="box"] ;
8 -> 10 ;
11 [label="X[1] <= 1.5000\nentropy = 0.832558239675\nsamples = 72", shape="box"] ;
3 -> 11 ;
12 [label="X[2] <= 2.5000\nentropy = 0.981940786864\nsamples = 19", shape="box"] ;
11 -> 12 ;
13 [label="entropy = 0.9852\nsamples = 7\nvalue = [ 3.  4.]", shape="box"] ;
12 -> 13 ;
14 [label="entropy = 0.9183\nsamples = 12\nvalue = [ 8.  4.]", shape="box"] ;
12 -> 14 ;
15 [label="X[4] <= 0.5000\nentropy = 0.736768010002\nsamples = 53", shape="box"] ;
11 -> 15 ;
16 [label="entropy = 0.5665\nsamples = 30\nvalue = [ 26.   4.]", shape="box"] ;
15 -> 16 ;
17 [label="entropy = 0.8865\nsamples = 23\nvalue = [ 16.   7.]", shape="box"] ;
15 -> 17 ;
18 [label="X[2] <= 1.5000\nentropy = 1.0\nsamples = 22", shape="box"] ;
2 -> 18 ;
19 [label="X[6] <= 2.5000\nentropy = 0.881290899231\nsamples = 10", shape="box"] ;
18 -> 19 ;
20 [label="entropy = 0.7219\nsamples = 5\nvalue = [ 4.  1.]", shape="box"] ;
19 -> 20 ;
21 [label="entropy = 0.9710\nsamples = 5\nvalue = [ 3.  2.]", shape="box"] ;
19 -> 21 ;
22 [label="X[3] <= 1.5000\nentropy = 0.918295834054\nsamples = 12", shape="box"] ;
18 -> 22 ;
23 [label="entropy = 0.0000\nsamples = 5\nvalue = [ 0.  5.]", shape="box"] ;
22 -> 23 ;
24 [label="entropy = 0.9852\nsamples = 7\nvalue = [ 4.  3.]", shape="box"] ;
22 -> 24 ;
25 [label="X[1] <= 2.5000\nentropy = 1.0\nsamples = 18", shape="box"] ;
1 -> 25 ;
26 [label="entropy = 0.7642\nsamples = 9\nvalue = [ 2.  7.]", shape="box"] ;
25 -> 26 ;
27 [label="entropy = 0.7642\nsamples = 9\nvalue = [ 7.  2.]", shape="box"] ;
25 -> 27 ;
28 [label="X[2] <= 1.5000\nentropy = 0.567081656433\nsamples = 629", shape="box"] ;
0 -> 28 ;
29 [label="X[5] <= 2.5000\nentropy = 0.751032416528\nsamples = 93", shape="box"] ;
28 -> 29 ;
30 [label="X[3] <= 2.5000\nentropy = 0.391243563629\nsamples = 26", shape="box"] ;
29 -> 30 ;
31 [label="entropy = 0.0000\nsamples = 13\nvalue = [  0.  13.]", shape="box"] ;
30 -> 31 ;
32 [label="X[0] <= 3.0000\nentropy = 0.619382194679\nsamples = 13", shape="box"] ;
30 -> 32 ;
33 [label="entropy = 0.7219\nsamples = 5\nvalue = [ 1.  4.]", shape="box"] ;
32 -> 33 ;
34 [label="entropy = 0.5436\nsamples = 8\nvalue = [ 1.  7.]", shape="box"] ;
32 -> 34 ;
35 [label="X[1] <= 3.5000\nentropy = 0.839530498105\nsamples = 67", shape="box"] ;
29 -> 35 ;
36 [label="X[7] <= 1.5000\nentropy = 0.881290899231\nsamples = 60", shape="box"] ;
35 -> 36 ;
37 [label="X[6] <= 1.5000\nentropy = 0.982858689713\nsamples = 26", shape="box"] ;
36 -> 37 ;
38 [label="entropy = 0.8813\nsamples = 10\nvalue = [ 3.  7.]", shape="box"] ;
37 -> 38 ;
39 [label="entropy = 1.0000\nsamples = 16\nvalue = [ 8.  8.]", shape="box"] ;
37 -> 39 ;
40 [label="X[3] <= 1.5000\nentropy = 0.733537929109\nsamples = 34", shape="box"] ;
36 -> 40 ;
41 [label="entropy = 0.9710\nsamples = 5\nvalue = [ 3.  2.]", shape="box"] ;
40 -> 41 ;
42 [label="entropy = 0.5788\nsamples = 29\nvalue = [  4.  25.]", shape="box"] ;
40 -> 42 ;
43 [label="entropy = 0.0000\nsamples = 7\nvalue = [ 0.  7.]", shape="box"] ;
35 -> 43 ;
44 [label="X[2] <= 3.5000\nentropy = 0.527642326094\nsamples = 536", shape="box"] ;
28 -> 44 ;
45 [label="X[7] <= 2.5000\nentropy = 0.477820744586\nsamples = 428", shape="box"] ;
44 -> 45 ;
46 [label="X[0] <= 2.5000\nentropy = 0.503258334776\nsamples = 396", shape="box"] ;
45 -> 46 ;
47 [label="X[4] <= 0.5000\nentropy = 0.603215406831\nsamples = 190", shape="box"] ;
46 -> 47 ;
48 [label="entropy = 0.4719\nsamples = 109\nvalue = [ 11.  98.]", shape="box"] ;
47 -> 48 ;
49 [label="entropy = 0.7412\nsamples = 81\nvalue = [ 17.  64.]", shape="box"] ;
47 -> 49 ;
50 [label="X[2] <= 2.5000\nentropy = 0.393915257363\nsamples = 206", shape="box"] ;
46 -> 50 ;
51 [label="entropy = 0.4984\nsamples = 137\nvalue = [  15.  122.]", shape="box"] ;
50 -> 51 ;
52 [label="entropy = 0.1093\nsamples = 69\nvalue = [  1.  68.]", shape="box"] ;
50 -> 52 ;
53 [label="entropy = 0.0000\nsamples = 32\nvalue = [  0.  32.]", shape="box"] ;
45 -> 53 ;
54 [label="X[3] <= 1.5000\nentropy = 0.691289869406\nsamples = 108", shape="box"] ;
44 -> 54 ;
55 [label="X[2] <= 4.5000\nentropy = 0.991076059838\nsamples = 18", shape="box"] ;
54 -> 55 ;
56 [label="X[0] <= 1.5000\nentropy = 0.961236604723\nsamples = 13", shape="box"] ;
55 -> 56 ;
57 [label="entropy = 0.9852\nsamples = 7\nvalue = [ 3.  4.]", shape="box"] ;
56 -> 57 ;
58 [label="entropy = 0.6500\nsamples = 6\nvalue = [ 5.  1.]", shape="box"] ;
56 -> 58 ;
59 [label="entropy = 0.0000\nsamples = 5\nvalue = [ 0.  5.]", shape="box"] ;
55 -> 59 ;
60 [label="X[6] <= 1.5000\nentropy = 0.566509506553\nsamples = 90", shape="box"] ;
54 -> 60 ;
61 [label="entropy = 0.0000\nsamples = 30\nvalue = [  0.  30.]", shape="box"] ;
60 -> 61 ;
62 [label="X[0] <= 2.5000\nentropy = 0.721928094887\nsamples = 60", shape="box"] ;
60 -> 62 ;
63 [label="entropy = 0.3228\nsamples = 17\nvalue = [  1.  16.]", shape="box"] ;
62 -> 63 ;
64 [label="entropy = 0.8204\nsamples = 43\nvalue = [ 11.  32.]", shape="box"] ;
62 -> 64 ;
}